tree
version=v4
num_class=1
num_tree_per_iteration=1
label_index=0
max_feature_idx=9
objective=regression
feature_names=Column_0 Column_1 Column_2 Column_3 Column_4 Column_5 Column_6 Column_7 Column_8 Column_9
feature_infos=[0:1432] [0:1201] [0:3786] [0:2415] [1:1745] [19:3132] [4:469] [2019:2023] [1:12] [1:31]
tree_sizes=859 871 872 788 790 863 861 783 857 861 863 860 784 939 853 851 777 848 774 778 854 849 923 852 776 855 778 849 858 853 779 854 777 855 863 856 861 780 853 782 859 865 780 784 773 936 785 941 861 865 862 939 862 859 947 783 937 866 785 859 786 866 856 784 859 858 860 860 780 856 864 860 863 869 782 782 783 788 859 861 944 942 863 941 784 940 862 869 790 785 942 866 863 862 863 789 865 872 869 940

Tree=0
num_leaves=9
num_cat=0
split_feature=8 5 6 1 3 3 8 8
split_gain=2.69727e+07 1.22729e+07 2.49938e+06 2.01467e+06 1.62557e+06 1.1055e+06 331404 326783
threshold=3.5000000000000004 303.50000000000006 256.50000000000006 353.50000000000006 22.500000000000004 184.50000000000003 10.500000000000002 8.5000000000000018
decision_type=2 2 2 2 2 2 2 2
left_child=2 4 -1 5 -2 -3 7 -7
right_child=1 3 -4 -5 -6 6 -8 -9
leaf_value=1044.9989297198028 931.96321537505162 980.32821548472418 1089.3975903750515 1033.6298821847695 967.32475383659005 1004.798401012349 998.65515119443899 1021.6632156611539
leaf_weight=21 26 20 32 24 26 27 31 20
leaf_count=21 26 20 32 24 26 27 31 20
internal_value=1009.35 990.324 1071.81 1007.66 949.644 1001.3 1006.68 1011.97
internal_weight=227 174 53 122 52 98 78 47
internal_count=227 174 53 122 52 98 78 47
is_linear=0
shrinkage=1


Tree=1
num_leaves=9
num_cat=0
split_feature=8 5 6 1 3 3 8 8
split_gain=2.18479e+07 9.94101e+06 2.07849e+06 1.63189e+06 1.31671e+06 895451 268438 264694
threshold=3.5000000000000004 303.50000000000006 289.00000000000006 353.50000000000006 22.500000000000004 184.50000000000003 10.500000000000002 8.5000000000000018
decision_type=2 2 2 2 2 2 2 2
left_child=2 4 -1 5 -2 -3 7 -7
right_child=1 3 -4 -5 -6 6 -8 -9
leaf_value=39.52918319086875 -69.646319697453436 -26.117821187376979 79.719332573630595 21.853678389390311 -37.820938051663909 -4.0946549027054395 -9.6235796524632367 11.083678398132324
leaf_weight=31 26 20 22 24 26 27 31 20
leaf_count=31 26 20 22 24 26 27 31 20
internal_value=2.99651e-07 -17.122 56.2119 -1.51706 -53.7336 -7.24051 -2.40017 2.36421
internal_weight=227 174 53 122 52 98 78 47
internal_count=227 174 53 122 52 98 78 47
is_linear=0
shrinkage=0.1


Tree=2
num_leaves=9
num_cat=0
split_feature=8 5 6 1 4 2 7 1
split_gain=1.76968e+07 8.05222e+06 1.7542e+06 1.32762e+06 1.07273e+06 749229 269007 312232
threshold=3.5000000000000004 303.50000000000006 256.50000000000006 337.00000000000006 33.500000000000007 146.50000000000003 2020.5000000000002 135.50000000000003
decision_type=2 2 2 2 2 2 2 2
left_child=2 4 -1 5 -2 -3 7 -7
right_child=1 3 -4 -5 -6 6 -8 -9
leaf_value=28.132902969632831 -64.488211192255434 -22.888347885825418 65.328623549267647 19.182763458251952 -35.569137783708243 -5.298234757510099 -9.0363574489470455 11.549532911994241
leaf_weight=21 23 22 32 25 29 22 31 22
leaf_count=21 23 22 32 25 29 22 31 22
internal_value=-1.13485e-07 -15.4098 50.5907 -1.36535 -48.3603 -6.66126 -1.90131 3.12565
internal_weight=227 174 53 122 52 97 75 44
internal_count=227 174 53 122 52 97 75 44
is_linear=0
shrinkage=0.1


Tree=3
num_leaves=8
num_cat=0
split_feature=2 6 8 6 3 4 3
split_gain=1.44438e+07 4.55654e+06 4.24825e+06 1.34079e+06 974444 540576 315442
threshold=238.00000000000003 34.000000000000007 5.5000000000000009 310.50000000000006 315.50000000000006 424.50000000000006 95.000000000000014
decision_type=2 2 2 2 2 2 2
left_child=1 -1 3 -2 5 6 -3
right_child=2 4 -4 -5 -6 -7 -8
leaf_value=-53.7840982913971 36.607384930234971 -32.868784695579897 5.5057728070479177 69.420444335937503 2.407287514531935 -4.1407459640502928 -16.243872886657716
leaf_weight=32 33 21 39 20 37 20 25
leaf_count=32 33 21 39 20 37 20 25
internal_value=6.82696e-09 -20.8235 30.5563 48.9897 -10.5834 -17.866 -23.8335
internal_weight=227 135 92 53 103 66 46
internal_count=227 135 92 53 103 66 46
is_linear=0
shrinkage=0.1


Tree=4
num_leaves=8
num_cat=0
split_feature=2 6 8 6 3 4 2
split_gain=1.16995e+07 3.6908e+06 3.44108e+06 1.09529e+06 789300 437867 308781
threshold=238.00000000000003 34.000000000000007 5.5000000000000009 289.00000000000006 315.50000000000006 424.50000000000006 76.500000000000014
decision_type=2 2 2 2 2 2 2
left_child=1 -1 3 -2 5 6 -3
right_child=2 4 -4 -5 -6 -7 -8
leaf_value=-48.405690002441411 32.445143842697142 -30.791692380905154 4.955195630513705 61.836321876162572 2.1665587451006916 -3.7266713571548467 -14.264357915119485
leaf_weight=32 32 20 39 21 37 20 26
leaf_count=32 32 20 39 21 37 20 26
internal_value=2.15509e-08 -18.7412 27.5007 44.0907 -9.52503 -16.0794 -21.4502
internal_weight=227 135 92 53 103 66 46
internal_count=227 135 92 53 103 66 46
is_linear=0
shrinkage=0.1


Tree=5
num_leaves=9
num_cat=0
split_feature=2 3 8 6 7 3 7 9
split_gain=9.50073e+06 3.63884e+06 2.21157e+06 740111 642035 554155 283181 58374.6
threshold=278.50000000000006 75.500000000000014 6.5000000000000009 310.50000000000006 2020.5000000000002 371.00000000000006 2020.5000000000002 14.500000000000002
decision_type=2 2 2 2 2 2 2 2
left_child=1 4 3 -2 -1 6 -3 -8
right_child=2 5 -4 -5 -6 -7 7 -9
leaf_value=-49.094632389234462 31.460130907694499 -0.2797673764436141 4.4643130699793501 56.294767913818362 -25.943829055786132 5.8457594532715653 -10.160265768141976 -17.452571819139564
leaf_weight=23 30 23 24 20 25 38 21 23
leaf_count=23 30 23 24 20 25 38 21 23
internal_value=1.95356e-08 -14.2277 29.4168 41.394 -37.0369 -3.80067 -9.27178 -13.9722
internal_weight=227 153 74 50 48 105 67 44
internal_count=227 153 74 50 48 105 67 44
is_linear=0
shrinkage=0.1


Tree=6
num_leaves=9
num_cat=0
split_feature=2 6 8 6 5 8 3 4
split_gain=7.76723e+06 2.50755e+06 2.26084e+06 625755 527062 320563 213298 158141
threshold=238.00000000000003 34.000000000000007 4.5000000000000009 289.00000000000006 303.50000000000006 9.5000000000000018 315.50000000000006 424.50000000000006
decision_type=2 2 2 2 2 2 2 2
left_child=1 -1 3 -2 -3 -4 7 -6
right_child=2 4 5 -5 6 -7 -8 -9
leaf_value=-39.721574091911322 27.305916840689527 -21.809212303161623 14.108985241976653 50.141472298758373 -13.980649662017823 -3.164095905848912 1.5708878136969902 -2.0505497929453851
leaf_weight=32 28 21 22 21 25 21 37 20
leaf_count=32 28 21 22 21 25 21 37 20
internal_value=1.47594e-07 -15.2703 22.4075 37.0926 -7.67377 5.67329 -4.05371 -8.67838
internal_weight=227 135 92 49 103 43 82 45
internal_count=227 135 92 49 103 43 82 45
is_linear=0
shrinkage=0.1


Tree=7
num_leaves=8
num_cat=0
split_feature=2 8 6 6 3 9 5
split_gain=6.32355e+06 2.20579e+06 1.72257e+06 565255 315096 309518 281808
threshold=198.50000000000003 3.5000000000000004 54.500000000000007 289.00000000000006 559.00000000000011 18.500000000000004 643.50000000000011
decision_type=2 2 2 2 2 2 2
left_child=2 3 -1 -2 -3 6 -4
right_child=1 4 5 -5 -6 -7 -8
leaf_value=-33.449464651254509 23.584707306171286 -1.4888717574042243 -9.2948684854432937 45.127324567522322 13.22340726852417 -17.0759357213974 5.6135011599177407
leaf_weight=39 29 37 32 21 24 24 21
leaf_count=39 29 37 32 21 24 24 21
internal_value=5.85543e-09 17.0622 -16.3268 32.6326 4.29957 -7.65422 -3.38778
internal_weight=227 111 116 50 61 77 53
internal_count=227 111 116 50 61 77 53
is_linear=0
shrinkage=0.1


Tree=8
num_leaves=9
num_cat=0
split_feature=2 3 8 7 0 6 4 7
split_gain=5.1754e+06 1.93553e+06 1.41541e+06 446907 389454 248696 78924.6 76127.8
threshold=268.50000000000006 75.500000000000014 6.5000000000000009 2020.5000000000002 232.00000000000003 157.00000000000003 222.50000000000003 2021.5000000000002
decision_type=2 2 2 2 2 2 2 2
left_child=1 3 4 -1 -2 7 -7 -3
right_child=2 5 -4 -5 -6 6 -8 -9
leaf_value=-37.67816424162492 19.618571653366089 -4.1307125741785224 2.8285271052656502 -18.363139305114746 37.517111230665641 -1.4639603585004808 6.5439265394210828 -12.196361028671266
leaf_weight=23 20 22 29 25 31 32 20 25
leaf_count=23 20 22 29 25 31 32 20 25
internal_value=1.78551e-08 -11.139 20.4679 -27.6183 30.4981 -3.14902 1.616 -8.42095
internal_weight=227 147 80 48 51 99 52 47
internal_count=227 147 80 48 51 99 52 47
is_linear=0
shrinkage=0.1


Tree=9
num_leaves=9
num_cat=0
split_feature=5 3 6 4 1 7 1 8
split_gain=4.23599e+06 2.16362e+06 811059 313846 312616 227678 94769.3 97128.7
threshold=786.50000000000011 75.500000000000014 246.50000000000003 308.00000000000006 202.00000000000003 2020.5000000000002 177.50000000000003 5.5000000000000009
decision_type=2 2 2 2 2 2 2 2
left_child=1 5 -2 6 -5 -1 7 -3
right_child=2 3 -4 4 -6 -7 -8 -9
leaf_value=-33.910348062929899 8.8141284054723297 -3.493075203895569 31.149761632970861 14.104700774238223 -2.6022152423858644 -19.98710519472758 0.062879205885387604 -12.489774485925835
leaf_weight=23 29 24 37 21 24 24 21 24
leaf_count=23 29 24 37 21 24 24 21 24
internal_value=-2.08485e-08 -8.74628 21.3356 -1.30283 5.19435 -26.8006 -5.54011 -7.99142
internal_weight=227 161 66 114 45 47 69 48
internal_count=227 161 66 114 45 47 69 48
is_linear=0
shrinkage=0.1


Tree=10
num_leaves=9
num_cat=0
split_feature=2 5 8 8 6 3 9 4
split_gain=3.50146e+06 1.29378e+06 1.00216e+06 295390 282431 205560 233342 82707.3
threshold=268.50000000000006 303.50000000000006 6.5000000000000009 5.5000000000000009 310.50000000000006 453.00000000000006 16.500000000000004 308.00000000000006
decision_type=2 2 2 2 2 2 2 2
left_child=1 3 4 -1 -2 6 7 -3
right_child=2 5 -4 -5 -6 -7 -8 -9
leaf_value=-14.570754762796255 19.298072531530934 -4.6718368394034249 1.9928827055569354 -29.794671844482423 34.540203819274907 5.2684021601310143 -12.009425748627763 4.3135991311073303
leaf_weight=26 31 21 29 25 20 26 29 20
leaf_count=26 31 21 29 25 20 26 29 20
internal_value=9.61552e-08 -9.16216 16.8355 -22.0335 25.2754 -2.32429 -5.14443 -0.288697
internal_weight=227 147 80 51 51 96 70 41
internal_count=227 147 80 51 51 96 70 41
is_linear=0
shrinkage=0.1


Tree=11
num_leaves=9
num_cat=0
split_feature=1 3 0 4 1 3 2 8
split_gain=2.86992e+06 1.70767e+06 871298 268081 530067 216784 172283 89015.5
threshold=291.00000000000006 75.500000000000014 232.00000000000003 308.00000000000006 197.50000000000003 434.00000000000006 52.500000000000007 5.5000000000000009
decision_type=2 2 2 2 2 2 2 2
left_child=1 6 5 7 -5 -2 -1 -3
right_child=2 3 -4 4 -6 -7 -8 -9
leaf_value=-29.664593414306644 1.0964140135308971 -0.76813831329345705 30.59128776832863 17.073167963027952 -4.7685478363037106 14.826230464810912 -17.21248680114746 -8.3197561534675391
leaf_weight=25 23 27 27 20 25 23 20 37
leaf_count=25 23 27 27 20 25 23 20 37
internal_value=-1.20785e-07 -7.74147 16.3313 -0.975422 4.93888 7.96132 -24.1303 -5.13392
internal_weight=227 154 73 109 45 46 45 64
internal_count=227 154 73 109 45 46 45 64
is_linear=0
shrinkage=0.1


Tree=12
num_leaves=8
num_cat=0
split_feature=5 3 0 2 4 5 1
split_gain=2.37246e+06 1.15593e+06 460083 202510 162427 151909 62787.3
threshold=786.50000000000011 75.500000000000014 232.00000000000003 198.50000000000003 308.00000000000006 106.50000000000001 156.00000000000003
decision_type=2 2 2 2 2 2 2
left_child=1 5 -2 6 -5 -1 -3
right_child=2 3 -4 4 -6 -7 -8
leaf_value=-26.347517623901368 8.8002232470010462 -2.3489895395330485 25.693707874843053 -3.0291570403359156 8.2833412853876762 -14.848964977264405 -8.8362425727844247
leaf_weight=20 38 37 28 22 30 27 25
leaf_count=20 38 37 28 22 30 27 25
internal_value=1.50193e-08 -6.54554 15.9672 -1.10491 3.49728 -19.742 -4.96482
internal_weight=227 161 66 114 52 47 62
internal_count=227 161 66 114 52 47 62
is_linear=0
shrinkage=0.1


Tree=13
num_leaves=10
num_cat=0
split_feature=1 3 0 2 3 2 7 9 4
split_gain=1.95743e+06 1.12936e+06 583422 194183 168969 137268 95093.9 47198.3 31084.9
threshold=291.00000000000006 75.500000000000014 232.00000000000003 268.50000000000006 434.00000000000006 52.500000000000007 2020.5000000000002 15.500000000000002 150.50000000000003
decision_type=2 2 2 2 2 2 2 2 2
left_child=1 5 4 6 -2 -1 8 -8 -3
right_child=2 3 -4 -5 -6 -7 7 -9 -10
leaf_value=-24.66130690765381 0.57760927677154539 -2.7094721067519418 25.156237538655603 7.2706334197002906 12.699056492681089 -13.546399588584899 -3.080801264047623 -9.8686259247007833 2.5587691307067875
leaf_weight=25 23 21 27 23 23 20 20 21 24
leaf_count=25 23 21 27 23 23 20 20 21 24
internal_value=2.47871e-08 -6.39339 13.4874 -0.891019 6.63833 -19.7213 -3.07379 -6.55749 0.100257
internal_weight=227 154 73 109 46 45 86 41 45
internal_count=227 154 73 109 46 45 86 41 45
is_linear=0
shrinkage=0.1


Tree=14
num_leaves=9
num_cat=0
split_feature=5 3 6 3 8 4 5 3
split_gain=1.59554e+06 736793 333655 353934 200154 169272 134280 71749.3
threshold=786.50000000000011 86.500000000000014 310.50000000000006 512.50000000000011 10.500000000000002 357.00000000000006 106.50000000000001 453.00000000000006
decision_type=2 2 2 2 2 2 2 2
left_child=1 6 3 -2 5 7 -1 -3
right_child=2 4 -4 -5 -6 -7 -8 -9
leaf_value=-21.691231307983401 -1.5952474260330201 -4.7068910729140043 23.877308034896853 16.099266114601722 -8.2405703950811322 7.6738213837146763 -11.181420721498228 2.8156100500197638
leaf_weight=20 20 32 20 26 27 30 31 21
leaf_count=20 20 32 20 26 27 30 31 21
internal_value=8.46806e-10 -5.36784 13.0943 8.406 -0.761577 1.67135 -15.3029 -1.72628
internal_weight=227 161 66 46 110 83 51 53
internal_count=227 161 66 46 110 83 51 53
is_linear=0
shrinkage=0.1


Tree=15
num_leaves=9
num_cat=0
split_feature=1 3 0 4 1 3 2 8
split_gain=1.30282e+06 762044 397450 151387 375404 113628 109326 63823
threshold=291.00000000000006 75.500000000000014 232.00000000000003 308.00000000000006 197.50000000000003 434.00000000000006 52.500000000000007 5.5000000000000009
decision_type=2 2 2 2 2 2 2 2
left_child=1 6 5 7 -5 -2 -1 -3
right_child=2 3 -4 4 -6 -7 -8 -9
leaf_value=-20.572563133239747 0.38031586149464486 -0.12434101987768104 20.634574395638925 13.960036280155183 -4.421028318881989 10.320489443903384 -10.65322515487671 -6.518682719565728
leaf_weight=25 23 27 27 20 25 23 20 37
leaf_count=25 23 27 27 20 25 23 20 37
internal_value=-5.51409e-09 -5.21592 11.0035 -0.696087 3.74833 5.3504 -16.164 -3.82107
internal_weight=227 154 73 109 45 46 45 64
internal_count=227 154 73 109 45 46 45 64
is_linear=0
shrinkage=0.1


Tree=16
num_leaves=8
num_cat=0
split_feature=6 1 4 4 5 9 8
split_gain=1.0744e+06 512603 246986 156782 153145 129547 46714.2
threshold=238.00000000000003 51.000000000000007 433.50000000000006 508.00000000000006 973.50000000000011 21.500000000000004 6.5000000000000009
decision_type=2 2 2 2 2 2 2
left_child=1 -1 5 -4 -2 6 -3
right_child=4 2 3 -5 -6 -7 -8
leaf_value=-14.729640007019043 5.0058486747741702 0.79921004588787381 10.602922175044107 -0.11429922641851964 15.91971638997396 -11.213277383472608 -5.1395236297890001
leaf_weight=35 20 26 21 39 36 23 27
leaf_count=35 20 26 21 39 36 23 27
internal_value=1.10282e-08 -3.937 -1.15948 3.63673 12.0219 -4.94596 -2.22618
internal_weight=227 171 136 60 56 76 53
internal_count=227 171 136 60 56 76 53
is_linear=0
shrinkage=0.1


Tree=17
num_leaves=9
num_cat=0
split_feature=3 6 8 9 1 4 0 7
split_gain=927953 286446 242795 219152 244073 177878 107126 73017.7
threshold=371.00000000000006 184.00000000000003 3.5000000000000004 23.500000000000004 51.000000000000007 357.00000000000006 53.000000000000007 2021.5000000000002
decision_type=2 2 2 2 2 2 2 2
left_child=1 3 7 4 -1 -4 -6 -2
right_child=2 -3 5 -5 6 -7 -8 -9
leaf_value=-13.167490193477045 16.771473771875556 4.4253884647203527 -2.6364969319310685 -15.857770778582648 3.0664127208568432 8.7543651984288147 -6.0180049514770513 8.7131450155506975
leaf_weight=26 22 23 29 26 27 26 25 23
leaf_count=26 22 23 29 26 27 26 25 23
internal_value=5.09397e-08 -5.67346 7.2053 -7.90686 -5.25656 2.74827 -1.3011 12.6528
internal_weight=227 127 100 104 78 55 52 45
internal_count=227 127 100 104 78 55 52 45
is_linear=0
shrinkage=0.1


Tree=18
num_leaves=8
num_cat=0
split_feature=3 4 2 8 4 8 7
split_gain=751642 244285 248764 196664 144081 80999.8 59144.3
threshold=371.00000000000006 455.00000000000006 52.500000000000007 3.5000000000000004 357.00000000000006 5.5000000000000009 2021.5000000000002
decision_type=2 2 2 2 2 2 2
left_child=1 2 -1 6 -5 -4 -2
right_child=3 -3 5 4 -6 -7 -8
leaf_value=-15.543160869335308 15.094326331398705 1.7340594435060348 0.55854329195889563 -2.3728471262701625 7.8789288300734306 -7.0300859610239677 7.8418304028718371
leaf_weight=29 22 37 22 29 26 39 23
leaf_count=29 22 37 22 29 26 39 23
internal_value=-1.92993e-08 -5.10612 -7.91819 6.48477 2.47345 -4.2932 11.3875
internal_weight=227 127 90 100 55 61 45
internal_count=227 127 90 100 55 61 45
is_linear=0
shrinkage=0.1


Tree=19
num_leaves=8
num_cat=0
split_feature=6 5 7 5 8 7 8
split_gain=621056 283726 207011 110009 102082 184018 93519.6
threshold=238.00000000000003 303.50000000000006 2022.5000000000002 1393.5000000000002 10.500000000000002 2020.5000000000002 5.5000000000000009
decision_type=2 2 2 2 2 2 2
left_child=1 6 4 -2 5 -3 -1
right_child=3 2 -4 -5 -6 -7 -8
leaf_value=-4.9491116351551483 5.5749571716084203 5.7024124244528434 9.0082020235061648 14.650165316191588 -6.7906345538794994 -4.8776206052303319 -13.351845125051646
leaf_weight=27 34 31 20 22 32 35 26
leaf_count=27 34 31 20 22 32 35 26
internal_value=-3.47519e-08 -2.99329 -0.263375 9.14022 -2.15553 0.0917888 -9.07121
internal_weight=227 171 118 56 98 66 53
internal_count=227 171 118 56 98 66 53
is_linear=0
shrinkage=0.1


Tree=20
num_leaves=9
num_cat=0
split_feature=5 7 2 8 3 3 7 1
split_gain=521366 254147 222096 125441 118659 107639 43461.4 33660.3
threshold=786.50000000000011 2021.5000000000002 52.500000000000007 10.500000000000002 605.50000000000011 434.00000000000006 2020.5000000000002 71.000000000000014
decision_type=2 2 2 2 2 2 2 2
left_child=2 -2 -1 5 -3 6 -4 -8
right_child=1 4 3 -5 -6 -7 7 -9
leaf_value=-10.674302845616495 16.260906609621916 -1.8648981729279397 2.1771230101585388 -7.1835550014461793 8.5319757143656414 5.2890348349848111 -6.5215577054023743 -1.2595885503676632
leaf_weight=31 22 23 20 28 21 31 20 31
leaf_count=31 22 23 20 28 21 31 20 31
internal_value=-4.36138e-08 7.48513 -3.06844 -1.25473 3.09725 0.372786 -1.77375 -3.32311
internal_weight=227 66 161 130 44 102 71 51
internal_count=227 66 161 130 44 102 71 51
is_linear=0
shrinkage=0.1


Tree=21
num_leaves=9
num_cat=0
split_feature=4 2 6 8 4 3 5 3
split_gain=440308 249207 198559 161388 134034 195197 56869 19147.3
threshold=424.50000000000006 52.500000000000007 310.50000000000006 5.5000000000000009 508.00000000000006 434.00000000000006 587.00000000000011 373.50000000000006
decision_type=2 2 2 2 2 2 2 2
left_child=1 -1 4 7 -2 -6 -5 -3
right_child=2 3 -4 6 5 -7 -8 -9
leaf_value=-12.051233390281942 8.0195573683579777 1.1775218645731609 13.875257055759432 -8.2696077735335738 -6.4383441466551563 6.0679713234305384 -1.9435539436340332 5.5008798313140872
leaf_weight=29 30 21 20 27 26 24 30 20
leaf_count=29 30 21 20 27 26 24 30 20
internal_value=-6.43835e-08 -3.90808 4.96326 -1.49837 2.73526 -0.435313 -4.94011 3.28648
internal_weight=227 127 100 98 80 50 57 41
internal_count=227 127 100 98 80 50 57 41
is_linear=0
shrinkage=0.1


Tree=22
num_leaves=10
num_cat=0
split_feature=1 8 7 4 7 9 9 8 4
split_gain=360311 309996 162745 158463 145236 107457 86756.4 97548.6 73966
threshold=135.50000000000003 9.5000000000000018 2021.5000000000002 424.50000000000006 2022.5000000000002 15.500000000000002 23.500000000000004 5.5000000000000009 186.50000000000003
decision_type=2 2 2 2 2 2 2 2 2
left_child=6 2 3 -2 -4 -3 7 -1 -9
right_child=1 5 4 -5 -6 -7 -8 8 -10
leaf_value=1.0546363727251691 5.1101882866450721 1.3126635960170203 -2.5477940048162755 17.54762677669525 7.9236649725172263 -8.6880416436628867 -10.723959016799927 -10.788968086242676 -2.1886185276508332
leaf_weight=30 21 21 26 20 27 22 20 20 20
leaf_count=30 21 21 26 20 27 22 20 20 20
internal_value=-1.05293e-08 3.22914 6.44641 11.1772 2.78672 -3.80398 -4.91546 -3.25589 -6.48879
internal_weight=227 137 94 41 53 43 90 70 40
internal_count=227 137 94 41 53 43 90 70 40
is_linear=0
shrinkage=0.1


Tree=23
num_leaves=9
num_cat=0
split_feature=4 2 7 7 8 3 6 3
split_gain=308964 180727 155942 243748 114765 49938.7 47853.2 13075.4
threshold=424.50000000000006 52.500000000000007 2021.5000000000002 2022.5000000000002 5.5000000000000009 470.50000000000006 207.50000000000003 373.50000000000006
decision_type=2 2 2 2 2 2 2 2
left_child=1 -1 -2 5 7 -4 -6 -3
right_child=2 4 3 -5 6 -7 -8 -9
leaf_value=-10.208337592667547 9.201731671549771 1.0705499217623757 -6.9975353811681273 9.8271133513677693 -6.3369157211648099 -0.015441150892348515 -0.33027073996407647 4.6432338905334474
leaf_weight=29 38 21 20 21 36 21 21 20
leaf_count=29 38 21 20 21 36 21 21 20
internal_value=-1.50456e-08 -3.2737 4.1576 1.06604 -1.22162 -3.42134 -4.12394 2.81332
internal_weight=227 127 100 62 98 41 57 41
internal_count=227 127 100 62 98 41 57 41
is_linear=0
shrinkage=0.1


Tree=24
num_leaves=8
num_cat=0
split_feature=1 2 0 8 1 8 4
split_gain=252222 170313 119001 67029.6 86778 68432.5 45405.6
threshold=291.00000000000006 57.500000000000007 232.00000000000003 10.500000000000002 135.50000000000003 5.5000000000000009 554.00000000000011
decision_type=2 2 2 2 2 2 2
left_child=1 -1 6 4 5 -3 -2
right_child=2 3 -4 -5 -6 -7 -8
leaf_value=-8.7883276719599959 5.1761780071826209 2.1818029201549032 10.111478744171285 -4.4412005258328993 4.4529403473593687 -5.1798182249069216 -1.1312737959623338
leaf_weight=32 21 23 27 33 38 28 25
leaf_count=32 21 23 27 33 38 28 25
internal_value=2.88767e-08 -2.29499 4.84148 -0.591814 0.835486 -1.85987 1.74822
internal_weight=227 154 73 122 89 51 46
internal_count=227 154 73 122 89 51 46
is_linear=0
shrinkage=0.1


Tree=25
num_leaves=9
num_cat=0
split_feature=4 7 7 2 8 3 6 3
split_gain=216937 124855 180918 116408 78221.5 40696 35378.3 7938.77
threshold=424.50000000000006 2021.5000000000002 2022.5000000000002 52.500000000000007 5.5000000000000009 470.50000000000006 207.50000000000003 373.50000000000006
decision_type=2 2 2 2 2 2 2 2
left_child=3 -2 5 -1 7 -3 -6 -5
right_child=1 2 -4 4 6 -7 -8 -9
leaf_value=-8.3086710584574739 7.9972638607025148 -6.3768240246549253 8.2654489608038038 0.8769568984485453 -5.3951149710350563 -0.073884941282726477 -0.23041760921478271 3.6607941651344298
leaf_weight=29 38 20 21 21 36 21 21 20
leaf_count=29 38 20 21 21 36 21 21 20
internal_value=-2.87397e-09 3.48382 0.717522 -2.74317 -1.09623 -3.14849 -3.49233 2.23493
internal_weight=227 100 62 127 98 41 57 41
internal_count=227 100 62 127 98 41 57 41
is_linear=0
shrinkage=0.1


Tree=26
num_leaves=8
num_cat=0
split_feature=3 4 7 2 5 5 8
split_gain=184014 95826.1 90538.6 66129.4 64355.8 116234 51814.6
threshold=512.50000000000011 455.00000000000006 2021.5000000000002 464.00000000000006 536.50000000000011 303.50000000000006 5.5000000000000009
decision_type=2 2 2 2 2 2 2
left_child=1 4 -3 -2 5 6 -1
right_child=3 2 -4 -5 -6 -7 -8
leaf_value=-1.5605360895395279 7.2492120459273055 6.3800264996031055 -1.9592883841196695 0.87143549096995399 -7.2939425451681021 3.6376539919078348 -7.9366275157928472
leaf_weight=26 37 23 30 29 32 25 25
leaf_count=26 37 23 30 29 32 25 25
internal_value=-2.18758e-08 -1.82293 1.65966 4.44686 -3.53199 -1.948 -4.68607
internal_weight=227 161 53 66 108 76 51
internal_count=227 161 53 66 108 76 51
is_linear=0
shrinkage=0.1


Tree=27
num_leaves=9
num_cat=0
split_feature=6 8 1 1 5 1 0 1
split_gain=168070 107239 102407 129554 85470.7 58974.1 43133 26996
threshold=204.50000000000003 10.500000000000002 91.000000000000014 197.50000000000003 855.50000000000011 453.50000000000006 23.500000000000004 7.5000000000000009
decision_type=2 2 2 2 2 2 2 2
left_child=1 2 6 -4 -2 -6 7 -1
right_child=4 -3 3 -5 5 -7 -8 -9
leaf_value=-4.4615940895676616 -0.059030052235251984 -8.2141771907607719 7.1847021277304055 -2.3634575565656024 10.436476392745973 3.3266810919557304 -7.5513968426734213 0.7341696739196778
leaf_weight=20 38 24 27 30 20 28 20 20
leaf_count=20 38 24 27 30 20 28 20 20
internal_value=4.16379e-08 -2.12506 -0.87601 2.15935 3.48411 6.2891 -3.75961 -1.86371
internal_weight=227 141 117 57 86 48 60 40
internal_count=227 141 117 57 86 48 60 40
is_linear=0
shrinkage=0.1


Tree=28
num_leaves=9
num_cat=0
split_feature=4 6 1 3 1 1 0 2
split_gain=140371 85428.1 83555.8 73132 69763.2 57633.5 79326.3 17703.3
threshold=424.50000000000006 310.50000000000006 202.00000000000003 75.500000000000014 453.50000000000006 177.50000000000003 136.00000000000003 1.0000000180025095e-35
decision_type=2 2 2 2 2 2 2 2
left_child=3 2 -2 7 -4 6 -5 -1
right_child=1 -3 4 5 -6 -7 -8 -9
leaf_value=-3.3846461856365204 6.4286273603853976 8.6480029678344721 -3.3839138984680179 0.9338348117367975 3.8686189765021917 2.8493637546896937 -6.9302360741988469 -7.4526558821615971
leaf_weight=20 23 20 36 29 21 32 23 23
leaf_count=20 23 20 36 29 21 32 23 23
internal_value=-9.74155e-09 2.80239 1.34098 -2.2066 -0.711928 -0.489697 -2.5445 -5.56056
internal_weight=227 100 80 127 57 84 52 43
internal_count=227 100 80 127 57 84 52 43
is_linear=0
shrinkage=0.1


Tree=29
num_leaves=9
num_cat=0
split_feature=3 6 9 1 9 0 8 4
split_gain=123963 70445.6 118205 66181.2 50586.9 39029.4 54968.3 18094.4
threshold=371.00000000000006 184.00000000000003 23.500000000000004 156.00000000000003 20.500000000000004 23.500000000000004 8.5000000000000018 468.50000000000006
decision_type=2 2 2 2 2 2 2 2
left_child=1 2 5 -2 7 -1 -7 -5
right_child=3 -3 -4 4 -6 6 -8 -9
leaf_value=1.1813723180029128 -2.5116275730729107 2.9345230423885846 -9.0205160764547507 4.2336481761932374 7.0812836041373588 -6.923437154860725 0.3119451329821632 0.32383153469398107
leaf_weight=36 20 23 26 20 31 21 21 29
leaf_count=36 20 23 26 20 31 21 21 29
internal_value=5.60599e-09 -2.07363 -3.18121 2.63351 3.9198 -1.23477 -3.30575 1.91968
internal_weight=227 127 104 100 80 78 42 49
internal_count=227 127 104 100 80 78 42 49
is_linear=0
shrinkage=0.1


Tree=30
num_leaves=8
num_cat=0
split_feature=4 7 7 8 0 2 3
split_gain=104640 80889.1 121049 61864 59331.2 37364.3 20705.7
threshold=424.50000000000006 2021.5000000000002 2022.5000000000002 5.5000000000000009 39.000000000000007 76.500000000000014 470.50000000000006
decision_type=2 2 2 2 2 2 2
left_child=3 -2 6 5 -5 -1 -3
right_child=1 2 -4 4 -6 -7 -8
leaf_value=-2.4543207137481029 6.0524321377277381 -5.2720799171924595 6.3669903755187995 -6.9548627528277311 -1.1935863395531974 2.8297784298658373 -0.77622916301091516
leaf_weight=23 38 20 21 33 39 32 21
leaf_count=23 38 20 21 33 39 32 21
internal_value=1.58858e-08 2.41957 0.192974 -1.90517 -3.83417 0.620064 -2.96933
internal_weight=227 100 62 127 72 55 41
internal_count=227 100 62 127 72 55 41
is_linear=0
shrinkage=0.1


Tree=31
num_leaves=9
num_cat=0
split_feature=8 3 7 4 6 5 5 4
split_gain=93977.5 111381 55897.3 55842.2 56926.2 38831.3 57236.2 17632
threshold=10.500000000000002 512.50000000000011 2021.5000000000002 455.00000000000006 163.50000000000003 566.50000000000011 106.50000000000001 133.50000000000003
decision_type=2 2 2 2 2 2 2 2
left_child=1 3 -3 5 -5 6 -1 -8
right_child=-2 2 -4 4 -6 -7 7 -9
leaf_value=-5.2708215880393983 -4.847728913087014 7.9841466060051545 1.6968317054933117 -1.2982194299283236 5.8169807564128533 -5.3923494724126968 2.9290558471679691 -1.0545108947530391
leaf_weight=20 34 26 31 23 22 26 25 20
leaf_count=20 34 26 31 23 22 26 25 20
internal_value=6.93753e-09 0.854004 4.56473 -0.701227 2.18032 -2.12617 -0.819696 1.15858
internal_weight=227 193 57 136 45 91 65 45
internal_count=227 193 57 136 45 91 65 45
is_linear=0
shrinkage=0.1


Tree=32
num_leaves=8
num_cat=0
split_feature=4 8 7 7 1 5 3
split_gain=76745.9 68126.5 81465.4 77709.7 50800.9 102339 27676.5
threshold=300.00000000000006 9.5000000000000018 2021.5000000000002 2022.5000000000002 177.50000000000003 444.50000000000006 37.000000000000007
decision_type=2 2 2 2 2 2 2
left_child=4 2 -2 -4 5 6 -1
right_child=1 -3 3 -5 -6 -7 -8
leaf_value=-2.7388395251898934 7.6381343389379568 -1.9421737544676838 -2.5558498765741078 5.1986632376909263 2.0101911384325759 -7.8704684010867414 1.6688875364405769
leaf_weight=29 29 34 28 24 26 29 28
leaf_count=29 29 34 28 24 26 29 28
internal_value=4.20121e-10 1.81457 3.39148 1.02316 -1.86318 -3.0342 -0.57364
internal_weight=227 115 81 52 112 86 57
internal_count=227 115 81 52 112 86 57
is_linear=0
shrinkage=0.1


Tree=33
num_leaves=9
num_cat=0
split_feature=8 3 1 4 6 5 5 4
split_gain=69555.6 82343.9 50099.2 41121.3 45227.7 25834.3 40886.9 17595.5
threshold=10.500000000000002 512.50000000000011 353.50000000000006 455.00000000000006 163.50000000000003 566.50000000000011 106.50000000000001 133.50000000000003
decision_type=2 2 2 2 2 2 2 2
left_child=1 3 -3 5 -5 6 -1 -8
right_child=-2 2 -4 4 -6 -7 7 -9
leaf_value=-4.521740322113037 -4.1705392767401301 7.8069618066151936 1.6609685182571412 -1.2303627921187361 5.111739766597748 -4.4893850529566413 2.6809976673126226 -1.2984390121698379
leaf_weight=20 34 21 36 23 22 26 25 20
leaf_count=20 34 21 36 23 22 26 25 20
internal_value=1.52146e-08 0.734706 3.92528 -0.60252 1.87022 -1.8253 -0.759671 0.912359
internal_weight=227 193 57 136 45 91 65 45
internal_count=227 193 57 136 45 91 65 45
is_linear=0
shrinkage=0.1


Tree=34
num_leaves=9
num_cat=0
split_feature=5 3 9 2 9 4 4 8
split_gain=58388.8 62914.7 78391.9 55468.3 71497.3 38568.6 46286.7 33229.9
threshold=1418.5000000000002 434.00000000000006 23.500000000000004 435.00000000000006 16.500000000000004 508.00000000000006 308.00000000000006 6.5000000000000009
decision_type=2 2 2 2 2 2 2 2
left_child=1 2 5 4 -3 6 7 -1
right_child=-2 3 -4 -5 -6 -7 -8 -9
leaf_value=1.1495803693930309 4.7764264770176101 -0.098529693484306347 -6.2661197884877531 -2.3522644090652469 7.8754619940467512 -4.344210770016625 4.3977059766650202 -3.3567630396286647
leaf_weight=36 23 22 30 20 23 21 22 30
leaf_count=36 23 22 30 20 23 21 22 30
internal_value=3.15747e-08 -0.538519 -1.73943 2.02958 3.97707 -0.493549 0.425358 -0.898758
internal_weight=227 204 139 65 45 109 88 66
internal_count=227 204 139 65 45 109 88 66
is_linear=0
shrinkage=0.1


Tree=35
num_leaves=9
num_cat=0
split_feature=8 3 9 4 6 5 5 8
split_gain=55595.1 55628 44461.3 31940.1 36625.3 23083.3 34668 13759.8
threshold=10.500000000000002 512.50000000000011 14.500000000000002 455.00000000000006 163.50000000000003 566.50000000000011 258.50000000000006 5.5000000000000009
decision_type=2 2 2 2 2 2 2 2
left_child=1 3 -3 5 -5 6 7 -1
right_child=-2 2 -4 4 -6 -7 -8 -9
leaf_value=-0.49377708633740741 -3.7285874528043408 0.11946367621421815 5.7478466629981995 -1.0531443976837656 4.654032426530665 -4.0381622525361873 2.8302954310462591 -4.0452720481157298
leaf_weight=24 34 25 32 23 22 26 21 20
leaf_count=24 34 25 32 23 22 26 21 20
internal_value=-6.98451e-09 0.65685 3.27926 -0.442248 1.73703 -1.51991 -0.512614 -2.10809
internal_weight=227 193 57 136 45 91 65 44
internal_count=227 193 57 136 45 91 65 44
is_linear=0
shrinkage=0.1


Tree=36
num_leaves=9
num_cat=0
split_feature=4 7 7 2 4 3 3 3
split_gain=45985.6 60243.3 72140.5 37851.1 33739.8 17467.2 17492.1 15304
threshold=424.50000000000006 2021.5000000000002 2022.5000000000002 52.500000000000007 251.00000000000003 453.00000000000006 154.50000000000003 470.50000000000006
decision_type=2 2 2 2 2 2 2 2
left_child=3 -2 7 -1 5 6 -5 -3
right_child=1 2 -4 4 -6 -7 -8 -9
leaf_value=-4.4365749466008157 4.7391358389666207 -4.7385334479808803 4.4486804678326566 1.6882941529864359 -3.8768426656723025 2.6375806472131185 -2.1296597208295549 -0.87335150128319161
leaf_weight=29 38 20 21 21 21 28 28 21
leaf_count=29 38 20 21 21 21 28 28 21
internal_value=-2.22927e-08 1.60398 -0.317561 -1.26298 -0.323854 0.645142 -0.493394 -2.75881
internal_weight=227 100 62 127 98 77 49 41
internal_count=227 100 62 127 98 77 49 41
is_linear=0
shrinkage=0.1


Tree=37
num_leaves=8
num_cat=0
split_feature=8 9 8 0 4 8 8
split_gain=43962.8 41512.1 96897.4 86963.9 46589 43980 35799.3
threshold=10.500000000000002 18.500000000000004 2.5000000000000004 248.50000000000003 455.00000000000006 7.5000000000000009 6.5000000000000009
decision_type=2 2 2 2 2 2 2
left_child=1 2 -1 5 6 -3 -4
right_child=-2 3 4 -5 -6 -7 -8
leaf_value=-6.9716104662418363 -3.3156515364261234 -1.6473557693836018 0.98878996372222905 7.6745409743352369 3.8649865846480091 4.1203922843933105 -4.0097875760949178
leaf_weight=20 34 39 38 22 31 20 23
leaf_count=20 34 39 38 22 31 20 23
internal_value=-4.18808e-09 0.584104 -0.663114 2.30865 0.708299 0.307813 -0.89592
internal_weight=227 193 112 81 92 59 61
internal_count=227 193 112 81 92 59 61
is_linear=0
shrinkage=0.1


Tree=38
num_leaves=9
num_cat=0
split_feature=8 9 1 9 8 1 0 3
split_gain=39510.4 139129 46939.6 87451.3 109222 49845.6 41435.9 29450.2
threshold=9.5000000000000018 18.500000000000004 138.50000000000003 18.500000000000004 2.5000000000000004 360.50000000000006 43.000000000000007 26.500000000000004
decision_type=2 2 2 2 2 2 2 2
left_child=2 -2 6 4 -4 -5 7 -1
right_child=1 -3 3 5 -6 -7 -8 -9
leaf_value=-1.4154837625367303 1.8370738952390611 -8.7048689785457807 -6.2744494915008548 9.1100740523565378 3.0908146040006117 2.1344861650466918 -3.9175728090347786 3.4737312056801537
leaf_weight=28 31 21 20 21 33 20 31 22
leaf_count=28 31 21 20 21 33 20 31 22
internal_value=-1.41003e-08 -2.42025 0.71916 2.23946 -0.443247 5.70735 -1.04514 0.735771
internal_weight=227 52 175 94 53 41 81 50
internal_count=227 52 175 94 53 41 81 50
is_linear=0
shrinkage=0.1


Tree=39
num_leaves=8
num_cat=0
split_feature=4 1 8 9 9 6 9
split_gain=35076.6 56257.8 55740.8 52550.5 44420.3 15337.1 12444.2
threshold=300.00000000000006 167.50000000000003 7.5000000000000009 13.500000000000002 25.500000000000004 75.500000000000014 10.500000000000002
decision_type=2 2 2 2 2 2 2
left_child=4 -2 3 -3 5 -1 -7
right_child=1 2 -4 -5 -6 6 -8
leaf_value=-1.9075708711105919 5.7742465368726039 -1.6579633732636769 -3.1501425912885956 4.383014896180895 -5.4052617118472144 2.4569310788065195 -0.57611067487347511
leaf_weight=36 22 24 33 36 21 24 31
leaf_count=36 22 24 33 36 21 24 31
internal_value=5.56988e-09 1.22675 0.150997 1.96662 -1.25961 -0.302919 0.747398
internal_weight=227 115 93 60 112 91 55
internal_count=227 115 93 60 112 91 55
is_linear=0
shrinkage=0.1


Tree=40
num_leaves=9
num_cat=0
split_feature=5 3 2 9 9 4 9 8
split_gain=32847.3 29761.5 52568.6 44688.4 44520.9 32962.9 33621.3 24314.2
threshold=1418.5000000000002 453.00000000000006 435.00000000000006 16.500000000000004 23.500000000000004 508.00000000000006 9.5000000000000018 6.5000000000000009
decision_type=2 2 2 2 2 2 2 2
left_child=1 4 3 -3 5 6 -1 -8
right_child=-2 2 -4 -5 -6 -7 7 -9
leaf_value=2.9521786093711855 3.5825154781341553 0.17146863369714649 -2.7956319963932041 6.6952993072214584 -4.4849365115165716 -3.8106965967587065 1.346445575853189 -2.9564783671806598
leaf_weight=36 23 21 20 21 32 21 24 29
leaf_count=36 23 21 20 21 32 21 24 29
internal_value=-1.305e-08 -0.403911 1.42402 3.43338 -1.20202 -0.246994 0.593879 -1.00798
internal_weight=227 204 62 42 142 110 89 53
internal_count=227 204 62 42 142 110 89 53
is_linear=0
shrinkage=0.1


Tree=41
num_leaves=9
num_cat=0
split_feature=4 7 7 9 3 1 3 3
split_gain=31078.9 46960.8 48286.6 27668.5 14167.9 22958.3 28145.7 9484.26
threshold=424.50000000000006 2021.5000000000002 2022.5000000000002 25.500000000000004 512.50000000000011 120.50000000000001 71.000000000000014 470.50000000000006
decision_type=2 2 2 2 2 2 2 2
left_child=3 -2 7 4 5 6 -1 -3
right_child=1 2 -4 -5 -6 -7 -8 -9
leaf_value=-2.0557692297573751 4.0866627552007371 -3.9336649763584135 3.5215040842692056 -3.9474297202550446 2.0222743233044942 -3.6468176635828886 2.3500016524873932 -0.89089577765691852
leaf_weight=29 38 20 21 26 21 22 29 21
leaf_count=29 38 20 21 26 21 22 29 21
internal_value=-2.94085e-09 1.31863 -0.377912 -1.03829 -0.289401 -0.896216 0.147116 -2.37517
internal_weight=227 100 62 127 101 80 58 41
internal_count=227 100 62 127 101 80 58 41
is_linear=0
shrinkage=0.1


Tree=42
num_leaves=8
num_cat=0
split_feature=8 9 9 5 8 4 8
split_gain=26475.9 103061 42640.6 58821.9 32207.6 33867.6 36172.8
threshold=9.5000000000000018 18.500000000000004 21.500000000000004 685.50000000000011 2.5000000000000004 300.00000000000006 5.5000000000000009
decision_type=2 2 2 2 2 2 2
left_child=2 -2 4 -4 -1 6 -6
right_child=1 -3 3 -5 5 -7 -8
leaf_value=-3.7446370234092079 1.6829476048869472 -7.3901939959753129 0.3242465119151508 7.0555912676311685 1.3238767695042395 2.8306994536944803 -3.5470824305216477
leaf_weight=24 31 21 34 21 31 35 30
leaf_count=24 31 21 34 21 31 35 30
internal_value=-3.88612e-09 -1.98121 0.588701 2.8944 -0.468076 0.351064 -1.07168
internal_weight=227 52 175 55 120 96 61
internal_count=227 52 175 55 120 96 61
is_linear=0
shrinkage=0.1


Tree=43
num_leaves=8
num_cat=0
split_feature=4 1 6 4 1 5 2
split_gain=23583.4 45164.1 40905.2 30056.1 28664.9 99481.5 9380.68
threshold=300.00000000000006 197.50000000000003 310.50000000000006 588.50000000000011 156.00000000000003 444.50000000000006 57.500000000000007
decision_type=2 2 2 2 2 2 2
left_child=4 -2 3 -3 5 6 -1
right_child=1 2 -4 -5 -6 -7 -8
leaf_value=-0.92981577906115298 4.5836188033775045 0.78035444446972446 3.883637781143189 -3.4262285228931546 1.5531608158542265 -7.2676224689483648 1.6603668583763971
leaf_weight=29 27 35 20 33 31 25 27
leaf_count=29 27 35 20 33 31 25 27
internal_value=-5.43531e-09 1.00589 -0.0918225 -1.26108 -1.03283 -2.02253 0.319022
internal_weight=227 115 88 68 112 81 56
internal_count=227 115 88 68 112 81 56
is_linear=0
shrinkage=0.1


Tree=44
num_leaves=8
num_cat=0
split_feature=5 4 7 9 8 9 8
split_gain=23641 48442 28943.9 71370.7 28389 58948.3 8884.5
threshold=453.00000000000006 127.00000000000001 2019.5000000000002 25.500000000000004 2.5000000000000004 13.500000000000002 5.5000000000000009
decision_type=2 2 2 2 2 2 2
left_child=1 6 -2 4 -4 -6 -1
right_child=2 -3 3 -5 5 -7 -8
leaf_value=1.906266587972641 -1.7352492429114676 -4.6552922738009483 -2.333480201448713 6.9128076016902931 4.5848181207664309 -1.2763533907967646 -0.94752553820610042
leaf_weight=24 37 29 28 20 32 37 20
leaf_count=24 37 29 28 20 32 37 20
internal_value=9.58401e-10 -1.48224 0.702621 1.47357 0.352079 1.44187 0.609088
internal_weight=227 73 154 117 97 69 44
internal_count=227 73 154 117 97 69 44
is_linear=0
shrinkage=0.1


Tree=45
num_leaves=10
num_cat=0
split_feature=8 9 7 1 9 0 6 4 4
split_gain=23716.2 79769.1 38548.2 54719.9 51961.8 38090.5 36092.4 30747.4 22110.7
threshold=9.5000000000000018 18.500000000000004 2021.5000000000002 138.50000000000003 16.500000000000004 48.500000000000007 105.00000000000001 666.00000000000011 33.500000000000007
decision_type=2 2 2 2 2 2 2 2 2
left_child=2 -2 3 5 -5 8 -4 -8 -1
right_child=1 -3 6 4 -6 -7 7 -9 -10
leaf_value=-0.55540869028671924 1.348513621668662 -6.6337969507489891 -4.5065170853034315 1.1469652539207822 8.2690832424163823 -3.6766889274120333 3.2997170782089236 -1.8734480018968935 3.9326048726127265
leaf_weight=23 31 21 23 21 20 20 20 27 21
leaf_count=23 31 21 23 21 20 20 20 27 21
internal_value=-9.08511e-09 -1.87511 0.557176 1.76899 4.62117 -0.0581793 -1.26055 0.327899 1.5866
internal_weight=227 52 175 105 41 64 70 47 44
internal_count=227 52 175 105 41 64 70 47 44
is_linear=0
shrinkage=0.1


Tree=46
num_leaves=8
num_cat=0
split_feature=8 9 5 8 9 8 1
split_gain=19766.2 28681.1 37938.7 22594.3 28486 33368.1 21083.1
threshold=10.500000000000002 21.500000000000004 685.50000000000011 2.5000000000000004 8.5000000000000018 6.5000000000000009 120.50000000000001
decision_type=2 2 2 2 2 2 2
left_child=1 3 -3 -1 6 -6 -5
right_child=-2 2 -4 4 5 -7 -8
leaf_value=-3.2123950242996218 -2.2232495251823874 0.035452833175659185 5.0784139810416562 0.0014114427566528321 1.0226094630029468 -3.4154612593352796 4.5930472230911255
leaf_weight=24 34 35 26 20 36 32 20
leaf_count=24 34 35 26 20 36 32 20
internal_value=8.43688e-09 0.391661 2.18491 -0.437039 0.179707 -1.06589 2.29723
internal_weight=227 193 61 132 108 68 40
internal_count=227 193 61 132 108 68 40
is_linear=0
shrinkage=0.1


Tree=47
num_leaves=10
num_cat=0
split_feature=7 4 9 8 4 6 4 3 1
split_gain=19269.4 71052.7 27147.6 41122.5 44728.2 26306.8 28519.4 18942.9 14827.1
threshold=2021.5000000000002 519.50000000000011 8.5000000000000018 6.5000000000000009 177.00000000000003 105.00000000000001 588.50000000000011 629.50000000000011 73.000000000000014
decision_type=2 2 2 2 2 2 2 2 2
left_child=1 2 -1 8 -5 -2 -7 -8 -4
right_child=5 -3 3 4 -6 6 7 -9 -10
leaf_value=2.2644606913581042 -4.0890199205149775 6.2304999494552611 2.9765667351809419 0.51622460365295408 -5.6755821284438888 2.9719485080242158 -3.8291072273254394 0.52323670089244845 -0.73828412010556177
leaf_weight=33 23 20 22 20 28 20 20 20 21
leaf_count=33 23 20 22 20 28 20 20 20 21
internal_value=-1.14877e-08 0.699485 -0.192614 -1.08364 -3.09566 -1.21357 -0.111307 -1.65294 1.16234
internal_weight=227 144 124 91 48 83 60 40 43
internal_count=227 144 124 91 48 83 60 40 43
is_linear=0
shrinkage=0.1


Tree=48
num_leaves=9
num_cat=0
split_feature=2 6 9 2 1 3 5 9
split_gain=19850.9 41878.8 34382.1 30324.3 52154.1 44310.9 13655.6 28639.1
threshold=522.50000000000011 157.00000000000003 22.500000000000004 1.0000000180025095e-35 202.00000000000003 71.000000000000014 855.50000000000011 10.500000000000002
decision_type=2 2 2 2 2 2 2 2
left_child=1 3 6 -1 5 -5 7 -3
right_child=-2 2 -4 4 -6 -7 -8 -9
leaf_value=2.0959752509991332 -2.3513887009313033 2.3502493506386166 4.9967884678107044 -3.9476480279650006 -5.9720266316248027 1.8627497795649939 2.6870544946711998 -2.7575378086255946
leaf_weight=24 31 21 26 21 23 35 23 23
leaf_count=24 31 21 26 21 23 35 23 23
internal_value=-9.82032e-09 0.371903 1.91022 -1.01706 -1.9628 -0.316149 0.71245 -0.31973
internal_weight=227 196 93 103 79 56 67 44
internal_count=227 196 93 103 79 56 67 44
is_linear=0
shrinkage=0.1


Tree=49
num_leaves=9
num_cat=0
split_feature=5 2 3 9 9 4 9 3
split_gain=17342.6 25811.4 53600.4 27809.6 22812.8 17060.9 18287.5 14615.4
threshold=1418.5000000000002 449.50000000000006 453.00000000000006 23.500000000000004 16.500000000000004 508.00000000000006 9.5000000000000018 112.00000000000001
decision_type=2 2 2 2 2 2 2 2
left_child=1 2 3 5 -4 6 -1 -8
right_child=-2 -3 4 -5 -6 -7 7 -9
leaf_value=2.2292609133654171 2.6031278143758363 -3.6140117054893857 0.95366571390110522 -3.4618035163730383 5.512380715778896 -2.7354423809051518 1.0810589760541915 -2.3105273962020876
leaf_weight=36 23 21 23 32 21 20 24 27
leaf_count=36 23 21 23 32 21 20 24 27
internal_value=3.89137e-08 -0.29349 0.0875536 -0.875338 3.12942 -0.101816 0.503616 -0.714487
internal_weight=227 204 183 139 44 107 87 51
internal_count=227 204 183 139 44 107 87 51
is_linear=0
shrinkage=0.1


Tree=50
num_leaves=9
num_cat=0
split_feature=4 1 0 9 4 9 6 5
split_gain=16492.4 39812.9 26737.3 22665.7 18011.1 17321.2 14158.9 11561.9
threshold=300.00000000000006 167.50000000000003 156.50000000000003 25.500000000000004 519.50000000000011 18.500000000000004 75.500000000000014 511.00000000000006
decision_type=2 2 2 2 2 2 2 2
left_child=3 -2 4 6 -3 -4 -1 -8
right_child=1 2 5 -5 -6 -7 7 -9
leaf_value=-1.7221158471372391 4.6667239850217648 0.17438017666339875 -0.45489648318290715 -3.8250428602808997 -4.0187447519529433 3.198014971945021 2.7468558788299564 -0.2671692567212241
leaf_weight=36 22 20 25 21 21 27 20 35
leaf_count=36 22 20 25 21 21 27 20 35
internal_value=2.90934e-08 0.841182 -0.0637854 -0.863713 -1.97332 1.44181 -0.180329 0.82884
internal_weight=227 115 93 112 41 52 91 55
internal_count=227 115 93 112 41 52 91 55
is_linear=0
shrinkage=0.1


Tree=51
num_leaves=10
num_cat=0
split_feature=2 2 6 6 6 5 3 0 9
split_gain=16461.8 35602.4 24299.3 44896 19767.9 14880.8 21506.9 11198.9 5529.95
threshold=522.50000000000011 361.50000000000006 175.50000000000003 124.50000000000001 83.500000000000014 618.50000000000011 434.00000000000006 43.000000000000007 18.500000000000004
decision_type=2 2 2 2 2 2 2 2 2
left_child=1 2 3 4 7 -4 -7 8 -1
right_child=-2 -3 5 -5 -6 6 -8 -9 -10
leaf_value=-1.0632887654834324 -2.1412799854432385 3.9467009902000427 3.6634733465313918 -5.3427395697683098 2.4247317334880001 -1.8082425886934457 2.722685446739197 -2.9550016975402835 1.1305903729796409
leaf_weight=27 31 24 20 20 23 22 20 20 20
leaf_count=27 31 24 20 20 23 22 20 20 20
internal_value=-6.84666e-09 0.338672 -0.164774 -1.05712 -0.104758 1.41842 0.349342 -0.97309 -0.129723
internal_weight=227 196 172 110 90 62 42 67 47
internal_count=227 196 172 110 90 62 42 67 47
is_linear=0
shrinkage=0.1


Tree=52
num_leaves=9
num_cat=0
split_feature=7 4 8 6 7 7 5 5
split_gain=14478.8 59317.2 21028.5 20113.1 23065.6 14293.3 27634 13991.5
threshold=2021.5000000000002 519.50000000000011 10.500000000000002 105.00000000000001 2022.5000000000002 2019.5000000000002 106.50000000000001 594.50000000000011
decision_type=2 2 2 2 2 2 2 2
left_child=1 2 5 -2 -5 -1 -7 -8
right_child=3 -3 -4 4 -6 6 7 -9
leaf_value=-1.3749520887290279 -3.5662241054617838 5.6599816083908081 -2.9376841876817785 -1.6340058858330186 2.3986682549766871 -1.9372201311588289 3.8844404276075033 0.49515447616577152
leaf_weight=31 23 20 23 37 23 20 29 21
leaf_count=31 23 20 23 37 23 20 29 21
internal_value=-3.28613e-08 0.606333 -0.208771 -1.05195 -0.0881475 0.412664 1.20432 2.46094
internal_weight=227 144 124 83 60 101 70 50
internal_count=227 144 124 83 60 101 70 50
is_linear=0
shrinkage=0.1


Tree=53
num_leaves=9
num_cat=0
split_feature=2 2 6 6 5 5 3 1
split_gain=14873.2 27480.6 22099.9 34437.8 16619.9 12469 16876.9 10974.3
threshold=522.50000000000011 361.50000000000006 175.50000000000003 124.50000000000001 317.00000000000006 618.50000000000011 434.00000000000006 33.500000000000007
decision_type=2 2 2 2 2 2 2 2
left_child=1 2 3 4 7 -4 -7 -1
right_child=-2 -3 5 -5 -6 6 -8 -9
leaf_value=0.21714070312402867 -2.0353376934605261 3.49180034250021 3.4445365935564043 -4.7248223832249643 1.5661927802222115 -1.500450074672699 2.5132517409324646 -2.6084537233625138
leaf_weight=27 31 24 20 20 35 22 20 28
leaf_count=27 31 24 20 20 35 22 20 28
internal_value=-3.77452e-09 0.321916 -0.120394 -0.971396 -0.137302 1.38945 0.410837 -1.22134
internal_weight=227 196 172 110 90 62 42 55
internal_count=227 196 172 110 90 62 42 55
is_linear=0
shrinkage=0.1


Tree=54
num_leaves=10
num_cat=0
split_feature=6 2 3 8 4 4 5 5 1
split_gain=12588 28345.3 27952.6 43002.1 21769.6 19693.9 27621.2 32238.9 9773.79
threshold=310.50000000000006 449.50000000000006 453.00000000000006 7.5000000000000009 519.50000000000011 455.00000000000006 536.50000000000011 303.50000000000006 33.500000000000007
decision_type=2 2 2 2 2 2 2 2 2
left_child=1 2 4 -4 5 6 7 8 -1
right_child=-2 -3 3 -5 -6 -7 -8 -9 -10
leaf_value=0.19542662308861813 2.2731619694016199 -3.6353373912247751 -0.33721322411740268 5.7806077396869666 -3.4428229136900472 2.7589615617479599 -3.9240674448013309 3.4701402880928733 -2.5780784805615742
leaf_weight=27 22 22 27 20 22 21 20 22 24
leaf_count=27 22 22 27 20 22 21 20 22 24
internal_value=-4.84944e-10 -0.243949 0.163759 2.26611 -0.562791 -0.00699504 -0.631566 0.270489 -1.10975
internal_weight=227 205 183 47 136 114 93 73 51
internal_count=227 205 183 47 136 114 93 73 51
is_linear=0
shrinkage=0.1


Tree=55
num_leaves=8
num_cat=0
split_feature=8 9 9 1 1 2 9
split_gain=13383.5 53855.3 27111.9 25035.2 12713.3 32092.4 23888.1
threshold=9.5000000000000018 19.500000000000004 21.500000000000004 94.500000000000014 51.000000000000007 153.50000000000003 12.500000000000002
decision_type=2 2 2 2 2 2 2
left_child=2 -2 4 -4 -1 -6 -7
right_child=1 -3 3 -5 5 6 -8
leaf_value=-2.482684834425648 1.1356019854545594 -5.4793406105041509 -0.56528186924755575 3.869865336120129 3.2573859890302028 -2.6405876670128263 1.0150908294952277
leaf_weight=24 32 20 20 35 24 39 33
leaf_count=24 32 20 20 35 24 39 33
internal_value=2.98417e-08 -1.40861 0.418557 2.25708 -0.424101 0.0905452 -0.965068
internal_weight=227 52 175 55 120 96 72
internal_count=227 52 175 55 120 96 72
is_linear=0
shrinkage=0.1


Tree=56
num_leaves=10
num_cat=0
split_feature=7 4 8 3 0 6 4 3 1
split_gain=12153.5 46577.7 18496.5 36276.5 22485.7 13966.5 20923.6 14240.3 11986
threshold=2021.5000000000002 519.50000000000011 6.5000000000000009 86.500000000000014 85.500000000000014 105.00000000000001 588.50000000000011 629.50000000000011 57.000000000000007
decision_type=2 2 2 2 2 2 2 2 2
left_child=1 2 8 -4 -5 -2 -7 -8 -1
right_child=5 -3 3 4 -6 6 7 -9 -10
leaf_value=2.9864030244675552 -3.0589424651602042 5.0337146043777468 -4.860332367420197 2.7659981608390809 -1.657899690557409 2.4802944207191469 -3.3679272738099102 0.40571022689342495 0.0076842755930764343
leaf_weight=22 23 20 20 20 27 20 20 20 35
leaf_count=22 23 20 20 20 27 20 20 20 35
internal_value=1.44154e-08 0.555515 -0.166775 -1.29328 0.22461 -0.963785 -0.160641 -1.48111 1.15737
internal_weight=227 144 124 67 47 83 60 40 57
internal_count=227 144 124 67 47 83 60 40 57
is_linear=0
shrinkage=0.1


Tree=57
num_leaves=9
num_cat=0
split_feature=2 2 6 6 7 0 8 5
split_gain=13084.8 21167.6 15131.2 28870.6 14875.3 14855.3 10830.7 3749.2
threshold=522.50000000000011 361.50000000000006 175.50000000000003 124.50000000000001 2020.5000000000002 43.000000000000007 6.5000000000000009 683.50000000000011
decision_type=2 2 2 2 2 2 2 2
left_child=1 2 3 4 -1 -6 -4 -8
right_child=-2 -3 6 -5 5 -7 7 -9
leaf_value=2.046285418689251 -1.9090547719309408 3.0840042153994247 3.0098410305522738 -4.2270853543281559 0.61951477527618415 -2.4072369114045173 1.1503716985384622 -0.76272315263748169
leaf_weight=25 31 24 21 20 34 31 21 20
leaf_count=25 31 24 21 20 34 31 21 20
internal_value=-2.65004e-08 0.301942 -0.0862524 -0.790413 -0.0267078 -0.824013 1.16306 0.217155
internal_weight=227 196 172 110 90 65 62 41
internal_count=227 196 172 110 90 65 62 41
is_linear=0
shrinkage=0.1


Tree=58
num_leaves=8
num_cat=0
split_feature=0 2 7 7 2 0 9
split_gain=12034.2 21600.4 13226 33088.8 16822.4 13726.2 14162.2
threshold=407.00000000000006 389.00000000000006 2019.5000000000002 2020.5000000000002 57.500000000000007 43.000000000000007 11.500000000000002
decision_type=2 2 2 2 2 2 2
left_child=1 2 -1 4 -4 -5 -7
right_child=-2 -3 3 5 -6 6 -8
leaf_value=-1.9693871014458795 -2.3424224734306338 2.4908409709589825 0.57810268640518192 0.79401165008544927 4.6796116542816169 -3.651077224897302 -0.52236816195341251
leaf_weight=35 20 35 20 35 20 23 39
leaf_count=35 20 35 20 35 20 23 39
internal_value=-1.7435e-08 0.226321 -0.234482 0.208741 2.62886 -0.789245 -1.68302
internal_weight=227 207 172 137 40 97 62
internal_count=227 207 172 137 40 97 62
is_linear=0
shrinkage=0.1


Tree=59
num_leaves=9
num_cat=0
split_feature=2 6 9 9 6 3 0 5
split_gain=11577.5 17388.6 23163.6 17102.9 11592.2 11281.4 7134.97 7895.76
threshold=522.50000000000011 157.00000000000003 22.500000000000004 23.500000000000004 83.500000000000014 71.000000000000014 125.50000000000001 855.50000000000011
decision_type=2 2 2 2 2 2 2 2
left_child=1 3 6 4 5 -1 -3 -8
right_child=-2 2 -4 -5 -6 -7 7 -9
leaf_value=-2.2369129070868858 -1.7957305239092918 -1.0454263429641724 3.8087162973789073 -2.887098376184702 1.7476095506123135 0.76967368225256605 -0.21900143840096217 2.5263334703445435
leaf_weight=26 31 25 26 25 28 24 22 20
leaf_count=26 31 25 26 25 28 24 22 20
internal_value=-1.10971e-08 0.284019 1.27526 -0.61099 0.118532 -0.793751 0.292134 1.0883
internal_weight=227 196 93 103 78 50 67 42
internal_count=227 196 93 103 78 50 67 42
is_linear=0
shrinkage=0.1


Tree=60
num_leaves=8
num_cat=0
split_feature=0 2 2 3 1 3 8
split_gain=9846.81 22040.1 11826 29497.3 27508.4 19320.2 18560
threshold=313.00000000000006 389.00000000000006 1.0000000180025095e-35 75.500000000000014 202.00000000000003 434.00000000000006 8.5000000000000018
decision_type=2 2 2 2 2 2 2
left_child=1 2 -1 -4 6 -6 -5
right_child=-2 -3 3 4 5 -7 -8
leaf_value=1.865499345958233 -1.6258379839360715 2.7600852956871194 -3.6513921918869019 0.15061958859095703 -2.9651281437453103 0.95181965589523321 3.6776849122047426
leaf_weight=24 32 30 25 37 34 20 25
leaf_count=24 32 30 25 37 34 20 25
internal_value=2.95332e-08 0.266804 -0.18652 -0.535799 0.135665 -1.51441 1.57282
internal_weight=227 195 165 141 116 54 62
internal_count=227 195 165 141 116 54 62
is_linear=0
shrinkage=0.1


Tree=61
num_leaves=9
num_cat=0
split_feature=2 3 7 9 0 6 5 1
split_gain=10476.8 13158.4 18726.9 20199.6 16831.3 29981.2 7198.92 5094.75
threshold=522.50000000000011 512.50000000000011 2019.5000000000002 25.500000000000004 71.000000000000014 69.500000000000014 855.50000000000011 33.500000000000007
decision_type=2 2 2 2 2 2 2 2
left_child=1 2 -1 4 5 7 -3 -4
right_child=-2 6 3 -5 -6 -7 -8 -9
leaf_value=-2.5444858409740307 -1.7082401802462917 3.2210975664854047 0.12248115085420155 3.0376957188481875 -1.9155018619800872 3.3755478577545057 0.57015075236558921 -2.1076418644189836
leaf_weight=27 31 20 21 23 38 26 21 20
leaf_count=27 31 20 21 23 38 26 21 20
internal_value=-1.85247e-08 0.270181 -0.151224 0.353605 -0.234339 0.719157 1.8633 -0.965384
internal_weight=227 196 155 128 105 67 41 41
internal_count=227 196 155 128 105 67 41 41
is_linear=0
shrinkage=0.1


Tree=62
num_leaves=9
num_cat=0
split_feature=6 2 3 0 1 7 5 7
split_gain=10478 22597.7 19626 38335.1 33266.2 36133.2 8953.07 4237.22
threshold=310.50000000000006 449.50000000000006 234.00000000000003 53.000000000000007 264.50000000000006 2019.5000000000002 303.50000000000006 2020.5000000000002
decision_type=2 2 2 2 2 2 2 2
left_child=1 2 3 6 5 -4 7 -1
right_child=-2 -3 4 -5 -6 -7 -8 -9
leaf_value=0.48320735216140753 2.0739168058742177 -3.2506585096771072 0.30340387388583157 -4.5496104738929057 -1.2047155328699062 5.307259646168462 1.8630132241093595 -1.5069893406785053
leaf_weight=20 22 22 31 22 37 27 23 23
leaf_count=20 22 22 31 22 37 27 23 23
internal_value=1.88267e-08 -0.222567 0.141466 -0.934531 1.13818 2.63279 0.270495 -0.581316
internal_weight=227 205 183 88 95 58 66 43
internal_count=227 205 183 88 95 58 66 43
is_linear=0
shrinkage=0.1


Tree=63
num_leaves=8
num_cat=0
split_feature=8 9 9 7 1 2 9
split_gain=11128.9 41713.1 20001.7 17487.6 9214.49 25065.9 17560.3
threshold=9.5000000000000018 19.500000000000004 21.500000000000004 2021.5000000000002 51.000000000000007 153.50000000000003 12.500000000000002
decision_type=2 2 2 2 2 2 2
left_child=2 -2 4 -4 -1 -6 -7
right_child=1 -3 3 -5 5 6 -8
leaf_value=-2.0946688483158749 0.95461377920582891 -4.867059073448182 3.4167511564312565 -0.22305330661210149 2.8948082049687702 -2.273442798700088 0.8608742385199577
leaf_weight=24 32 20 33 22 24 39 33
leaf_count=24 32 20 33 22 24 39 33
internal_value=7.22083e-10 -1.28449 0.381677 1.96083 -0.342101 0.0960414 -0.836881
internal_weight=227 52 175 55 120 96 72
internal_count=227 52 175 55 120 96 72
is_linear=0
shrinkage=0.1


Tree=64
num_leaves=9
num_cat=0
split_feature=8 9 9 1 8 9 4 8
split_gain=9014.43 33929.7 16201.4 17574 8197.19 16271.1 23731.9 8690.81
threshold=9.5000000000000018 18.500000000000004 21.500000000000004 97.000000000000014 2.5000000000000004 17.500000000000004 465.00000000000006 5.5000000000000009
decision_type=2 2 2 2 2 2 2 2
left_child=2 -2 4 -4 -1 6 7 -6
right_child=1 -3 3 -5 5 -7 -8 -9
leaf_value=-1.9608871897061666 0.94636520205005525 -4.259595513343811 -0.50974386135737104 3.1695787584956956 0.91568707589592258 -2.4324854838848116 3.6329853801500231 -1.5988073658060147
leaf_weight=24 31 21 21 34 28 20 21 27
leaf_count=24 31 21 21 34 28 20 21 27
internal_value=9.62339e-09 -1.15604 0.34351 1.76475 -0.307891 0.105359 0.773212 -0.318701
internal_weight=227 52 175 55 120 96 76 55
internal_count=227 52 175 55 120 96 76 55
is_linear=0
shrinkage=0.1


Tree=65
num_leaves=9
num_cat=0
split_feature=7 4 9 8 0 9 9 1
split_gain=9546.62 33124.8 17002.9 13198.7 21473.4 10894.1 21543.9 7596.62
threshold=2021.5000000000002 519.50000000000011 24.500000000000004 6.5000000000000009 59.000000000000007 13.500000000000002 23.500000000000004 87.500000000000014
decision_type=2 2 2 2 2 2 2 2
left_child=1 2 3 7 -5 -2 -7 -1
right_child=5 -3 -4 4 -6 6 -8 -9
leaf_value=3.025685175087141 -2.1632343472292024 4.2688618135452279 -2.33626532068959 -2.8659386500068336 1.2256206117827317 1.9911482989788056 -2.3391134259104729 0.42647547505118633
leaf_weight=23 36 20 27 23 29 27 20 22
leaf_count=23 36 20 27 23 29 27 20 22
internal_value=-2.82269e-10 0.492345 -0.11677 0.501027 -0.584108 -0.854189 0.148484 1.75496
internal_weight=227 144 124 97 52 83 47 45
internal_count=227 144 124 97 52 83 47 45
is_linear=0
shrinkage=0.1


Tree=66
num_leaves=9
num_cat=0
split_feature=2 6 8 0 6 1 9 8
split_gain=7831.13 12989.1 23505.2 28373.4 14776.8 13963.4 15704.7 11355.4
threshold=522.50000000000011 157.00000000000003 8.5000000000000018 232.00000000000003 204.50000000000003 152.50000000000003 20.500000000000004 5.5000000000000009
decision_type=2 2 2 2 2 2 2 2
left_child=1 5 3 -3 -4 6 7 -1
right_child=-2 2 4 -5 -6 -7 -8 -9
leaf_value=0.97626407146453864 -1.4768846377249689 -2.7488938789367676 4.8260384920239447 1.9263669066958959 1.0280119359493256 -2.0950145766541768 2.5899064502900555 -2.2078831136226653
leaf_weight=21 31 25 20 27 21 37 21 24
leaf_count=21 31 25 20 27 21 37 21 24
internal_value=1.37754e-08 0.233589 1.09031 -0.321355 2.88071 -0.539953 0.331824 -0.721948
internal_weight=227 196 93 52 41 103 66 45
internal_count=227 196 93 52 41 103 66 45
is_linear=0
shrinkage=0.1


Tree=67
num_leaves=9
num_cat=0
split_feature=8 9 9 2 8 4 0 8
split_gain=9624.79 26914.9 14367.3 23345.7 22645.4 14518.5 13035.7 12422.8
threshold=9.5000000000000018 15.500000000000002 18.500000000000004 389.00000000000006 2.5000000000000004 465.00000000000006 48.500000000000007 6.5000000000000009
decision_type=2 2 2 2 2 2 2 2
left_child=2 -2 4 6 -1 7 -4 -6
right_child=1 -3 3 -5 5 -7 -8 -9
leaf_value=-3.4340292596817017 1.0805298220652799 -3.4696058126596308 2.0865826192109482 4.2352382455553323 0.54208501828344247 2.4494490851526676 -1.0777392450968424 -2.5369613194465637
leaf_weight=20 26 26 23 21 38 23 30 20
leaf_count=20 26 26 23 21 38 23 30 20
internal_value=-7.22083e-09 -1.19454 0.354948 1.4135 -0.420626 0.323424 0.295457 -0.519655
internal_weight=227 52 175 74 101 81 53 58
internal_count=227 52 175 74 101 81 53 58
is_linear=0
shrinkage=0.1


Tree=68
num_leaves=8
num_cat=0
split_feature=5 9 7 7 9 6 3
split_gain=8811.16 26370.3 13147.1 26800.1 16976.6 10999.8 7324
threshold=453.00000000000006 23.500000000000004 2019.5000000000002 2021.5000000000002 18.500000000000004 207.50000000000003 52.500000000000007
decision_type=2 2 2 2 2 2 2
left_child=1 6 -2 5 -5 -4 -1
right_child=2 -3 3 4 -6 -7 -8
leaf_value=-1.0295604586601257 -1.2140881612494185 -3.9988929581642156 4.2738101876300316 -1.7674081091818057 1.5120937016275195 1.3454003338156078 1.3320450844435856
leaf_weight=24 37 20 23 38 27 29 29
leaf_count=24 37 20 23 38 27 29 29
internal_value=4.85765e-09 -0.904904 0.428948 0.948541 -0.405154 2.64066 0.262639
internal_weight=227 73 154 117 65 52 53
internal_count=227 73 154 117 65 52 53
is_linear=0
shrinkage=0.1


Tree=69
num_leaves=9
num_cat=0
split_feature=8 9 7 9 8 6 4 1
split_gain=9190.89 22045.8 13577.9 25076.3 13000.2 10198.9 14705 4610.85
threshold=9.5000000000000018 15.500000000000002 2021.5000000000002 25.500000000000004 6.5000000000000009 105.00000000000001 666.00000000000011 87.500000000000014
decision_type=2 2 2 2 2 2 2 2
left_child=2 -2 3 4 7 -4 -7 -1
right_child=1 -3 5 -5 -6 6 -8 -9
leaf_value=2.2863713638236125 0.89172131556731005 -3.2263247196490954 -2.4574434290761538 4.1568286028646284 -1.2924859715625645 2.167624776959419 -1.4099164212191546 0.39747746927397598
leaf_weight=24 26 26 23 21 32 20 27 28
leaf_count=24 26 26 23 21 32 20 27 28
internal_value=-1.65948e-08 -1.1673 0.346855 1.06606 0.293366 -0.731949 0.112442 1.26927
internal_weight=227 52 175 105 84 70 47 52
internal_count=227 52 175 105 84 70 47 52
is_linear=0
shrinkage=0.1


Tree=70
num_leaves=9
num_cat=0
split_feature=0 0 3 5 3 7 4 2
split_gain=9365.97 19483.9 12359.6 17245.6 27159 20987.6 7708.72 946.827
threshold=313.00000000000006 232.00000000000003 476.50000000000006 616.50000000000011 201.50000000000003 2020.5000000000002 127.00000000000001 57.500000000000007
decision_type=2 2 2 2 2 2 2 2
left_child=1 2 3 4 6 -5 7 -1
right_child=-2 -3 -4 5 -6 -7 -8 -9
leaf_value=-0.21024562290736606 -1.5856442898511887 3.0632676419886677 1.8272153794765473 -4.3214496203831265 3.5620946764945987 -0.38227147365871228 -1.997849516073863 0.75115086078643811
leaf_weight=21 32 22 28 21 21 38 24 20
leaf_count=21 32 22 28 21 21 38 24 20
internal_value=1.05818e-08 0.260208 -0.0962501 -0.467678 0.435622 -1.78435 -0.57447 0.258728
internal_weight=227 195 173 145 86 59 65 41
internal_count=227 195 173 145 86 59 65 41
is_linear=0
shrinkage=0.1


Tree=71
num_leaves=9
num_cat=0
split_feature=8 9 8 0 8 9 8 1
split_gain=8305.25 13081.7 20222.2 30015.3 17147.8 15402.9 13712.3 11050.8
threshold=10.500000000000002 18.500000000000004 7.5000000000000009 248.50000000000003 2.5000000000000004 8.5000000000000018 6.5000000000000009 120.50000000000001
decision_type=2 2 2 2 2 2 2 2
left_child=1 4 3 -3 -1 7 -7 -6
right_child=-2 2 -4 -5 5 6 -8 -9
leaf_value=-3.1000981473922731 -1.4411279930787928 -1.3540392777858639 3.8927512191590807 3.335231834366208 -0.056186325550079345 0.61969210780583905 -2.6280680894851685 3.2680854320526125
leaf_weight=20 34 39 21 21 20 26 26 20
leaf_count=20 34 39 21 21 20 26 26 20
internal_value=1.84328e-08 0.253877 1.22198 0.287206 -0.446266 0.130654 -1.00419 1.60595
internal_weight=227 193 81 60 112 92 52 40
internal_count=227 193 81 60 112 92 52 40
is_linear=0
shrinkage=0.1


Tree=72
num_leaves=9
num_cat=0
split_feature=0 0 1 3 1 2 6 9
split_gain=9254.39 14830.1 12584 38040.1 19773.8 19613.6 15895.2 9297.11
threshold=313.00000000000006 232.00000000000003 264.50000000000006 234.00000000000003 177.50000000000003 295.00000000000006 82.500000000000014 19.500000000000004
decision_type=2 2 2 2 2 2 2 2
left_child=1 2 3 6 -5 -4 7 -1
right_child=-2 -3 5 4 -6 -7 -8 -9
leaf_value=-0.82726479908999273 -1.5761708416044713 2.7041506675834004 0.44472462449754985 5.1083179928007585 0.76870915077271917 -3.4510683417320251 -2.8707649765014649 1.8899031221866609
leaf_weight=34 32 22 28 21 21 24 25 20
leaf_count=34 32 22 28 21 21 24 25 20
internal_value=8.44509e-09 0.258654 -0.0523344 0.506773 2.93851 -1.35333 -0.786051 0.179094
internal_weight=227 195 173 121 42 52 79 54
internal_count=227 195 173 121 42 52 79 54
is_linear=0
shrinkage=0.1


Tree=73
num_leaves=9
num_cat=0
split_feature=2 5 3 4 4 5 5 7
split_gain=8599.77 11736.8 13071.1 12345.6 14214.6 17226.2 18960 3790.74
threshold=522.50000000000011 1104.0000000000002 559.00000000000011 519.50000000000011 455.00000000000006 536.50000000000011 317.00000000000006 2020.5000000000002
decision_type=2 2 2 2 2 2 2 2
left_child=1 2 3 4 5 6 7 -1
right_child=-2 -3 -4 -5 -6 -7 -8 -9
leaf_value=0.55568545460700991 -1.5476671311163135 2.4786442972364884 2.3171098550160725 -2.4262491464614868 2.4946005469560628 -2.2745567672392903 2.9895529732817696 -1.1701307573488779
leaf_weight=20 31 21 21 24 20 34 21 35
leaf_count=20 31 21 21 24 20 34 21 35
internal_value=1.09888e-08 0.244784 -0.0232791 -0.342423 0.0422833 -0.403593 0.433418 -0.542561
internal_weight=227 196 175 154 130 110 76 55
internal_count=227 196 175 154 130 110 76 55
is_linear=0
shrinkage=0.1


Tree=74
num_leaves=8
num_cat=0
split_feature=8 9 5 6 2 0 1
split_gain=8409.11 10406.2 13750.8 7293.32 23904.2 20420.3 5856
threshold=10.500000000000002 21.500000000000004 685.50000000000011 184.00000000000003 111.00000000000001 267.50000000000006 51.000000000000007
decision_type=2 2 2 2 2 2 2
left_child=1 3 -3 4 6 -5 -1
right_child=-2 2 -4 5 -6 -7 -8
leaf_value=-0.50248779356479645 -1.4501107184325948 0.041567505768367229 3.0776165760480443 2.0250768313536773 -2.9594246368855242 -1.7693134079808777 1.9174293887615204
leaf_weight=20 34 35 26 37 32 23 20
leaf_count=20 34 35 26 37 32 23 20
internal_value=3.15091e-08 0.25546 1.33562 -0.243705 -0.922261 0.570561 0.707471
internal_weight=227 193 61 132 72 60 40
internal_count=227 193 61 132 72 60 40
is_linear=0
shrinkage=0.1


Tree=75
num_leaves=8
num_cat=0
split_feature=2 5 8 1 1 2 3
split_gain=7531.65 9102.5 12979 11476 22410 14278.1 21469.9
threshold=522.50000000000011 1104.0000000000002 4.5000000000000009 64.500000000000014 152.50000000000003 229.00000000000003 315.50000000000006
decision_type=2 2 2 2 2 2 2
left_child=1 2 -1 -4 -5 6 -6
right_child=-2 -3 3 4 5 -7 -8
leaf_value=-1.8275101512670517 -1.4483691461624639 2.1963384299051194 -1.088727170072104 3.0053710801260816 -1.2048166058280252 -1.9516234874725342 3.2131126019087706
leaf_weight=32 31 21 38 35 22 26 22
leaf_count=32 31 21 38 35 22 26 22
internal_value=-2.09798e-08 0.229079 -0.00699239 0.400396 0.939317 -0.09371 1.00415
internal_weight=227 196 175 143 105 70 44
internal_count=227 196 175 143 105 70 44
is_linear=0
shrinkage=0.1


Tree=76
num_leaves=8
num_cat=0
split_feature=8 9 7 2 6 5 7
split_gain=7400.42 20258.2 10705.5 20586.9 13095.8 15235.2 6913.42
threshold=9.5000000000000018 19.500000000000004 2021.5000000000002 389.00000000000006 111.50000000000001 127.50000000000001 2022.5000000000002
decision_type=2 2 2 2 2 2 2
left_child=2 -2 3 4 5 -1 -4
right_child=1 -3 6 -5 -6 -7 -8
leaf_value=-0.36795425162865569 0.5129626361653209 -3.5441063821315768 -1.5327057615304607 3.8365174078941346 -1.2129278690474374 3.12599705097576 0.46799529675514473
leaf_weight=26 32 20 39 20 35 24 31
leaf_count=26 32 20 39 20 35 24 31
internal_value=-1.04111e-08 -1.04745 0.311242 0.949857 0.270643 1.30914 -0.646681
internal_weight=227 52 175 105 85 50 70
internal_count=227 52 175 105 85 50 70
is_linear=0
shrinkage=0.1


Tree=77
num_leaves=8
num_cat=0
split_feature=0 2 8 1 1 9 6
split_gain=6870.1 12012.9 8354.27 8076.91 15781.4 14749.6 13564.3
threshold=294.00000000000006 389.00000000000006 4.5000000000000009 64.500000000000014 152.50000000000003 9.5000000000000018 163.50000000000003
decision_type=2 2 2 2 2 2 2
left_child=1 2 -1 -4 -5 -6 -7
right_child=-2 -3 3 4 5 6 -8
leaf_value=-1.5817273801372898 -1.2885024752787182 2.0729855589196085 -0.98456244808866789 2.8368856611016855 2.1302166713667767 -2.941843534651257 0.50560306549072276
leaf_weight=31 35 30 38 26 21 21 25
leaf_count=31 35 30 38 26 21 21 25
internal_value=-8.73064e-09 0.234883 -0.105506 0.243829 0.745752 -0.0657326 -1.06823
internal_weight=227 192 162 131 93 67 46
internal_count=227 192 162 131 93 67 46
is_linear=0
shrinkage=0.1


Tree=78
num_leaves=9
num_cat=0
split_feature=2 4 4 3 4 9 2 8
split_gain=7392.25 7846.62 13165.8 10692.2 22754 12612.6 12706.4 12574.6
threshold=522.50000000000011 480.00000000000006 588.50000000000011 86.500000000000014 84.000000000000014 6.5000000000000009 238.00000000000003 8.5000000000000018
decision_type=2 2 2 2 2 2 2 2
left_child=1 3 -3 4 -1 -5 7 -7
right_child=-2 2 -4 5 -6 6 -8 -9
leaf_value=0.53981086766278297 -1.4349034086350472 3.2086909963971095 0.024082518325132484 2.6137327330453055 -3.8491087374233062 -0.627573386026967 -2.3136065053939823 2.5416951547066375
leaf_weight=27 31 21 34 21 21 31 20 21
leaf_count=27 31 21 34 21 21 31 20 21
internal_value=6.11801e-09 0.226949 1.24002 -0.168222 -1.38034 0.457388 -0.171546 0.652324
internal_weight=227 196 55 141 48 93 72 52
internal_count=227 196 55 141 48 93 72 52
is_linear=0
shrinkage=0.1


Tree=79
num_leaves=9
num_cat=0
split_feature=8 9 7 7 9 9 2 6
split_gain=8048.5 14515 9594.23 16896.1 22956.7 6886.78 6978.38 6870.29
threshold=9.5000000000000018 19.500000000000004 2021.5000000000002 2019.5000000000002 21.500000000000004 18.500000000000004 180.00000000000003 44.500000000000007
decision_type=2 2 2 2 2 2 2 2
left_child=2 -2 3 -1 7 6 -4 -5
right_child=1 -3 5 4 -6 -7 -8 -9
leaf_value=-1.2269335203700598 0.22847889959812165 -3.2056760507822037 -0.079608372449874884 -0.88219231650942853 4.2488272984822597 0.59711752883319202 -2.6896332445598787 1.4315648418484312
leaf_weight=27 32 20 20 21 24 29 21 33
leaf_count=27 32 20 20 21 24 29 21 33
internal_value=-9.82032e-09 -1.09235 0.324584 0.929145 1.67548 -0.582258 -1.41645 0.53177
internal_weight=227 52 175 105 78 70 41 54
internal_count=227 52 175 105 78 70 41 54
is_linear=0
shrinkage=0.1


Tree=80
num_leaves=10
num_cat=0
split_feature=6 2 3 0 4 5 6 2 3
split_gain=7583.88 17320.3 13275.1 16801.4 9377.03 6389.69 8532.08 5471.27 14238.2
threshold=310.50000000000006 295.00000000000006 234.00000000000003 53.000000000000007 554.00000000000011 604.50000000000011 198.50000000000003 1.0000000180025095e-35 71.000000000000014
decision_type=2 2 2 2 2 2 2 2 2
left_child=1 2 3 7 -3 -4 -7 -1 -9
right_child=-2 4 5 -5 -6 6 -8 8 -10
leaf_value=1.4824129574000837 1.7644051309336317 -3.1923519439697268 2.8546631395816804 -2.96955406665802 -0.39453503981880522 -0.79531446411496121 1.8513800119531567 -2.3413796859979632 1.3452193772250958
leaf_weight=24 22 25 20 21 23 21 29 20 22
leaf_count=24 22 25 20 21 23 21 29 20 22
internal_value=-1.79996e-08 -0.189351 0.318893 -0.505925 -1.85173 1.34402 0.739768 0.277957 -0.410304
internal_weight=227 205 157 87 48 70 50 66 42
internal_count=227 205 157 87 48 70 50 66 42
is_linear=0
shrinkage=0.1


Tree=81
num_leaves=10
num_cat=0
split_feature=9 9 8 1 1 2 3 0 0
split_gain=6634.4 11719.1 12035.8 11165.9 10456.9 23368.2 14727.9 10063 15484.3
threshold=3.5000000000000004 6.5000000000000009 9.5000000000000018 210.50000000000003 353.50000000000006 291.00000000000006 629.50000000000011 31.500000000000004 90.000000000000014
decision_type=2 2 2 2 2 2 2 2 2
left_child=-1 -2 4 -4 5 7 -6 -3 -9
right_child=1 2 3 -5 6 -7 -8 8 -10
leaf_value=-1.6932137512025378 2.3001394081374875 1.4014824017005809 -3.295065878145397 0.0064529124469984147 -2.6868905440620754 3.8675018265133816 1.0235499233007432 -2.9440914803743361 0.82339402204379442
leaf_weight=21 23 34 20 21 23 21 20 20 24
leaf_count=21 23 34 20 21 23 21 20 20 24
internal_value=-2.5995e-08 0.172609 -0.0947854 -1.60404 0.340986 0.906541 -0.961104 0.109359 -0.889099
internal_weight=227 206 183 41 142 99 43 78 44
internal_count=227 206 183 41 142 99 43 78 44
is_linear=0
shrinkage=0.1


Tree=82
num_leaves=9
num_cat=0
split_feature=2 7 9 6 0 5 1 0
split_gain=7278.6 7628.41 22813.5 7378.87 17958.1 16276.2 7926.27 4492.41
threshold=522.50000000000011 2019.5000000000002 26.500000000000004 62.500000000000007 71.000000000000014 941.50000000000011 33.500000000000007 149.00000000000003
decision_type=2 2 2 2 2 2 2 2
left_child=1 7 3 6 -5 -6 -3 -1
right_child=-2 2 -4 4 5 -7 -8 -9
leaf_value=-2.066597616672516 -1.4238300356172748 0.28709009506485683 3.4491137224694963 2.5507360299428306 -1.7905644798030456 1.5714216788609825 -2.4290211586725143 0.052932423055171963
leaf_weight=20 31 22 23 30 36 24 21 20
leaf_count=20 31 22 23 30 36 24 21 20
internal_value=-7.41119e-09 0.225198 0.541103 0.0382137 0.553065 -0.44577 -1.03938 -1.00683
internal_weight=227 196 156 133 90 60 43 40
internal_count=227 196 156 133 90 60 43 40
is_linear=0
shrinkage=0.1


Tree=83
num_leaves=10
num_cat=0
split_feature=9 4 6 9 7 3 7 4 4
split_gain=6758.88 15797.7 10863.1 12733.3 10845.1 23208.6 14163.3 8662.13 2883.3
threshold=24.500000000000004 455.00000000000006 280.50000000000006 20.500000000000004 2021.5000000000002 264.50000000000006 2019.5000000000002 508.00000000000006 116.00000000000001
decision_type=2 2 2 2 2 2 2 2 2
left_child=2 -2 3 4 5 8 -7 -6 -1
right_child=1 -3 -4 -5 7 6 -8 -9 -10
leaf_value=0.0095194436285806743 -2.4779872214794163 1.1503336215019226 -1.789416165785356 2.6520030448436742 0.31384889375079766 0.77153328359127049 4.4484212446212767 -2.4923349987376824 -1.6111610378537859
leaf_weight=23 30 20 22 25 22 22 20 22 21
leaf_count=23 30 20 22 25 22 22 20 22 21
internal_value=1.97785e-08 -1.02666 0.290017 0.585162 0.187693 0.841008 2.52243 -1.08924 -0.763987
internal_weight=227 50 177 155 130 86 42 44 44
internal_count=227 50 177 155 130 86 42 44 44
is_linear=0
shrinkage=0.1


Tree=84
num_leaves=8
num_cat=0
split_feature=0 0 8 1 1 9 5
split_gain=6633.36 11108.5 15562.8 11177.4 27873 16475.6 7171.61
threshold=294.00000000000006 189.50000000000003 4.5000000000000009 64.500000000000014 152.50000000000003 9.5000000000000018 748.50000000000011
decision_type=2 2 2 2 2 2 2
left_child=1 2 -1 -4 -5 -6 -7
right_child=-2 -3 3 4 5 6 -8
leaf_value=-1.968413738523211 -1.2661067489215307 1.9642397630599238 -1.0180806909736835 3.9403971891850236 2.3240957069396972 0.19864643471581597 -2.3573552576096164
leaf_weight=35 35 31 38 24 20 21 23
leaf_count=35 35 31 38 24 20 21 23
internal_value=9.71529e-10 0.230801 -0.102967 0.415213 1.03413 -0.0557138 -1.13745
internal_weight=227 192 161 126 88 64 44
internal_count=227 192 161 126 88 64 44
is_linear=0
shrinkage=0.1


Tree=85
num_leaves=10
num_cat=0
split_feature=6 2 3 0 4 3 2 5 6
split_gain=6205.4 14940.4 9921.17 11261.6 7480.56 4845.03 11134.5 4046.34 3536.83
threshold=310.50000000000006 295.00000000000006 234.00000000000003 53.000000000000007 554.00000000000011 340.00000000000006 223.50000000000003 303.50000000000006 11.500000000000002
decision_type=2 2 2 2 2 2 2 2 2
left_child=1 2 3 7 -3 -4 -7 8 -1
right_child=-2 4 5 -5 -6 6 -8 -9 -10
leaf_value=0.54289693886583501 1.5960175389593299 -2.9126324806213382 2.5024118167161942 -2.4292789632365821 -0.41370391223741615 1.8792454138398171 -1.1668601155281066 1.3000767137693323 -1.2714487649855162
leaf_weight=22 22 25 20 21 23 30 20 23 21
leaf_count=22 22 25 20 21 23 30 20 23 21
internal_value=-2.16822e-08 -0.17128 0.300755 -0.412296 -1.71523 1.18698 0.660803 0.229471 -0.343179
internal_weight=227 205 157 87 48 70 50 66 43
internal_count=227 205 157 87 48 70 50 66 43
is_linear=0
shrinkage=0.1


Tree=86
num_leaves=9
num_cat=0
split_feature=8 9 9 8 8 2 9 6
split_gain=6340.9 10446.9 7496.13 17749.6 12372.5 20286.3 7845.89 4452.05
threshold=9.5000000000000018 19.500000000000004 12.500000000000002 3.5000000000000004 7.5000000000000009 435.00000000000006 24.500000000000004 105.00000000000001
decision_type=2 2 2 2 2 2 2 2
left_child=2 -2 3 -1 5 6 -4 -5
right_child=1 -3 4 7 -6 -7 -8 -9
leaf_value=-3.0335535573959351 0.15098173320293429 -2.7624575966596603 0.20209456773904655 -0.29000919810656844 2.9897284479368302 2.8155812180560567 -2.1266439748846966 1.6493766820430757
leaf_weight=20 32 20 39 29 21 23 23 20
leaf_count=20 32 20 39 29 21 23 23 20
internal_value=6.2493e-09 -0.969572 0.288101 -0.523099 0.816147 0.279144 -0.661792 0.501577
internal_weight=227 52 175 69 106 85 62 49
internal_count=227 52 175 69 106 85 62 49
is_linear=0
shrinkage=0.1


Tree=87
num_leaves=9
num_cat=0
split_feature=2 3 7 9 2 6 6 1
split_gain=6544.25 8169.38 14390.1 24600.8 9099.51 11431.1 7446.46 2003.46
threshold=648.50000000000011 629.50000000000011 2019.5000000000002 26.500000000000004 111.00000000000001 157.00000000000003 55.500000000000007 319.00000000000006
decision_type=2 2 2 2 2 2 2 2
left_child=1 2 -1 4 6 -6 -4 -7
right_child=-2 -3 3 -5 5 7 -8 -9
leaf_value=-1.9736781489104034 -1.639013950594447 1.9516754813816239 -0.1268279121319453 3.5362369219462075 -2.1412356028126349 -0.40352792228971213 2.3283885183788482 0.97779718747451205
leaf_weight=32 22 23 30 21 36 21 21 21
leaf_count=32 22 23 30 21 36 21 21 21
internal_value=-8.17595e-09 0.175894 -0.0485178 0.362183 -0.154523 -0.833652 0.884144 0.287135
internal_weight=227 205 182 150 129 78 51 42
internal_count=227 205 182 150 129 78 51 42
is_linear=0
shrinkage=0.1


Tree=88
num_leaves=8
num_cat=0
split_feature=2 5 8 3 8 0 6
split_gain=5620.84 7646.27 7234.14 6812.48 15626.8 10591.5 5525.06
threshold=522.50000000000011 1104.0000000000002 4.5000000000000009 215.00000000000003 8.5000000000000018 1.0000000180025095e-35 190.50000000000003
decision_type=2 2 2 2 2 2 2
left_child=1 2 -1 5 -5 -4 -6
right_child=-2 -3 3 4 6 -7 -8
leaf_value=-1.3776178032159807 -1.2512234426313833 2.0009406634739468 0.67566605264490309 -0.65742027179614926 3.1990704868150797 -1.9949696501647987 1.0071771082670793
leaf_weight=32 31 21 33 37 23 27 23
leaf_count=32 31 21 33 37 23 27 23
internal_value=5.82261e-09 0.197898 -0.0184676 0.285678 0.87252 -0.52612 2.10312
internal_weight=227 196 175 143 83 60 46
internal_count=227 196 175 143 83 60 46
is_linear=0
shrinkage=0.1


Tree=89
num_leaves=8
num_cat=0
split_feature=8 9 7 7 9 6 7
split_gain=5942.47 9294.22 6647.49 12047.7 15795.9 5345.94 4699.94
threshold=9.5000000000000018 19.500000000000004 2019.5000000000002 2021.5000000000002 21.500000000000004 44.500000000000007 2022.5000000000002
decision_type=2 2 2 2 2 2 2
left_child=2 -2 -1 4 5 -4 -5
right_child=1 -3 3 6 -6 -7 -8
leaf_value=-1.1640724298026828 0.11831042132107542 -2.6296986320614817 -0.7991211264083784 -1.1407928923383739 3.5314632932345074 1.2418762257604889 0.50881995385692969
leaf_weight=27 32 20 21 39 24 33 31
leaf_count=27 32 20 21 39 24 33 31
internal_value=-3.59564e-08 -0.938616 0.278903 0.542149 1.39687 0.448155 -0.41025
internal_weight=227 52 175 148 78 54 70
internal_count=227 52 175 148 78 54 70
is_linear=0
shrinkage=0.1


Tree=90
num_leaves=10
num_cat=0
split_feature=9 4 6 9 7 3 7 4 4
split_gain=5414.96 11040.2 8873.71 10061.8 8187.16 17141.8 11792.3 6474.02 2458.5
threshold=24.500000000000004 433.50000000000006 280.50000000000006 20.500000000000004 2021.5000000000002 264.50000000000006 2019.5000000000002 508.00000000000006 116.00000000000001
decision_type=2 2 2 2 2 2 2 2 2
left_child=2 -2 3 4 5 8 -7 -6 -1
right_child=1 -3 -4 -5 7 6 -8 -9 -10
leaf_value=0.075558396266854344 -2.2360927043216572 0.75744015249339025 -1.6198183728889988 2.3636116895675658 0.27654447122053666 0.58805958303538242 3.9431032991409305 -2.1494554442607545 -1.420978948757762
leaf_weight=23 28 22 22 25 22 22 20 22 21
leaf_count=23 28 22 22 25 22 22 20 22 21
internal_value=-1.64651e-08 -0.918938 0.259587 0.526341 0.17302 0.740659 2.1857 -0.936455 -0.638698
internal_weight=227 50 177 155 130 86 42 44 44
internal_count=227 50 177 155 130 86 42 44 44
is_linear=0
shrinkage=0.1


Tree=91
num_leaves=9
num_cat=0
split_feature=6 2 6 9 9 4 1 0
split_gain=6315.05 14348.7 7549.27 12309.4 8881.43 6094.79 3850.92 7095.36
threshold=310.50000000000006 295.00000000000006 175.50000000000003 24.500000000000004 15.500000000000002 554.00000000000011 19.500000000000004 43.000000000000007
decision_type=2 2 2 2 2 2 2 2
left_child=1 2 3 6 -4 -3 -1 -8
right_child=-2 5 4 -5 -6 -7 7 -9
leaf_value=-0.86690360903739938 1.6100560491735285 -2.7666727213859561 0.083536763746162951 -2.368085090886979 2.6841440399487815 -0.51105210133220846 1.9512273218896654 -0.19326430757840474
leaf_weight=20 22 25 29 21 24 23 27 36
leaf_count=20 22 25 29 21 24 23 27 36
internal_value=1.47699e-08 -0.172786 0.289808 -0.205214 1.26117 -1.68585 0.342019 0.725804
internal_weight=227 205 157 104 53 48 83 63
internal_count=227 205 157 104 53 48 83 63
is_linear=0
shrinkage=0.1


Tree=92
num_leaves=9
num_cat=0
split_feature=6 2 3 9 3 4 8 1
split_gain=5115.19 11622.4 6450.65 10482.4 9337.82 8070.27 7924.56 6020.09
threshold=310.50000000000006 295.00000000000006 201.50000000000003 21.500000000000004 22.500000000000004 150.50000000000003 8.5000000000000018 353.50000000000006
decision_type=2 2 2 2 2 2 2 2
left_child=1 2 4 6 -1 -6 -4 -3
right_child=-2 7 3 -5 5 -7 -8 -9
leaf_value=0.95717827474077544 1.4490502991459586 -0.48710694771546587 -0.89663742611883213 2.6847118139266968 -0.0677845930059751 -2.7521084569749377 1.4296146240499286 -2.7347333734685724
leaf_weight=30 22 26 32 23 24 21 27 22
leaf_count=30 22 26 32 23 24 21 27 22
internal_value=4.72144e-09 -0.155508 0.260827 0.873848 -0.40941 -1.32047 0.167919 -1.51727
internal_weight=227 205 157 82 75 45 59 48
internal_count=227 205 157 82 75 45 59 48
is_linear=0
shrinkage=0.1


Tree=93
num_leaves=9
num_cat=0
split_feature=8 9 7 9 6 6 5 1
split_gain=5676.2 7963.47 6252.69 12746.8 8640.72 10047 10581.6 2569.37
threshold=9.5000000000000018 19.500000000000004 2019.5000000000002 26.500000000000004 280.50000000000006 75.500000000000014 786.50000000000011 33.500000000000007
decision_type=2 2 2 2 2 2 2 2
left_child=2 -2 -1 4 5 7 -7 -4
right_child=1 -3 3 -5 -6 6 -8 -9
leaf_value=-1.1268863942888048 0.060992608778178692 -2.4826891769468786 0.20085019740191373 2.8101369017646429 -1.6514940055933867 2.7539129849137933 0.075099289417266846 -1.2953005207081638
leaf_weight=27 32 20 22 21 22 29 30 24
leaf_count=27 32 20 22 21 22 29 30 24
internal_value=5.2909e-09 -0.917347 0.272583 0.527892 0.150512 0.528076 1.3918 -0.57975
internal_weight=227 52 175 148 127 105 59 46
internal_count=227 52 175 148 127 105 59 46
is_linear=0
shrinkage=0.1


Tree=94
num_leaves=9
num_cat=0
split_feature=5 9 7 9 8 4 3 3
split_gain=4980.96 18371.6 8054.5 12699.9 11930.3 11610.7 8109.78 5018.87
threshold=453.00000000000006 23.500000000000004 2019.5000000000002 18.500000000000004 2.5000000000000004 574.50000000000011 340.00000000000006 52.500000000000007
decision_type=2 2 2 2 2 2 2 2
left_child=1 7 -2 4 -4 -5 -6 -1
right_child=2 -3 3 5 6 -7 -8 -9
leaf_value=-0.77554068639874463 -0.96351846327652813 -3.2628334093093869 -2.2071930313110353 3.7340032373155867 2.1736580394563219 0.6234408463750567 -0.44653702223742453 1.1794123203076166
leaf_weight=24 37 20 20 21 21 28 27 29
leaf_count=24 37 20 20 21 21 28 27 29
internal_value=-1.00435e-09 -0.680366 0.322511 0.729204 -0.155199 1.95654 0.699798 0.294151
internal_weight=227 73 154 117 68 49 48 53
internal_count=227 73 154 117 68 49 48 53
is_linear=0
shrinkage=0.1


Tree=95
num_leaves=8
num_cat=0
split_feature=8 8 3 0 0 5 9
split_gain=5649.74 6537.91 7124.84 23150.6 10925.3 7784.66 6361.99
threshold=9.5000000000000018 7.5000000000000009 476.50000000000006 152.50000000000003 23.500000000000004 973.50000000000011 19.500000000000004
decision_type=2 2 2 2 2 2 2
left_child=1 2 3 4 -1 -4 -2
right_child=6 -3 5 -5 -6 -7 -8
leaf_value=0.78721489035769521 -0.040755710657685996 1.4943948384693693 -2.398446226119995 3.4985616439580918 -1.7206255666911603 0.11526035155568803 -2.3143242865800859
leaf_weight=38 32 35 22 20 32 28 20
leaf_count=38 32 35 22 20 32 28 20
internal_value=1.90367e-08 0.271947 -0.0336653 0.49806 -0.359226 -0.990771 -0.915205
internal_weight=227 175 140 90 70 50 52
internal_count=227 175 140 90 70 50 52
is_linear=0
shrinkage=0.1


Tree=96
num_leaves=9
num_cat=0
split_feature=6 2 9 6 1 8 0 5
split_gain=4651.15 9826.02 6738.93 6387.16 13903.4 8566.01 6258.85 6915.71
threshold=310.50000000000006 295.00000000000006 20.500000000000004 163.50000000000003 135.50000000000003 8.5000000000000018 23.500000000000004 127.50000000000001
decision_type=2 2 2 2 2 2 2 2
left_child=1 3 -3 5 -5 6 7 -1
right_child=-2 2 -4 4 -6 -7 -8 -9
leaf_value=-0.17546307492256163 1.3817601778290489 -0.39898514832769122 -2.8023633486032491 -0.93422258496284494 2.2402679409529713 -1.9486504077911377 -0.92618888573987146 2.2555426619269632
leaf_weight=25 22 28 20 22 37 23 28 22
leaf_count=25 22 28 20 22 37 23 28 22
internal_value=1.42841e-08 -0.148286 -1.40039 0.234523 1.05656 -0.260376 0.257361 0.962455
internal_weight=227 205 48 157 59 98 75 47
internal_count=227 205 48 157 59 98 75 47
is_linear=0
shrinkage=0.1


Tree=97
num_leaves=9
num_cat=0
split_feature=9 9 5 2 3 0 9 5
split_gain=4641.75 7631.04 8707.84 10994.8 5420.31 9179.38 8577.89 14048.9
threshold=3.5000000000000004 6.5000000000000009 1393.5000000000002 295.00000000000006 215.00000000000003 1.0000000180025095e-35 21.500000000000004 685.50000000000011
decision_type=2 2 2 2 2 2 2 2
left_child=-1 -2 3 4 5 -3 7 -6
right_child=1 2 -4 -5 6 -7 -8 -9
leaf_value=-1.4162886721747263 1.8611797137590855 0.66023521884795167 1.8445268880753289 -1.7827957055507562 -1.9669385141134264 -1.8149205404622801 2.330786617877691 1.7812488412857057
leaf_weight=21 23 31 21 39 20 29 23 20
leaf_count=21 23 31 21 39 20 29 23 20
internal_value=-7.49161e-09 0.144379 -0.0713938 -0.319754 0.144137 -0.53609 0.791973 -0.0928448
internal_weight=227 206 183 162 123 60 63 40
internal_count=227 206 183 162 123 60 63 40
is_linear=0
shrinkage=0.1


Tree=98
num_leaves=9
num_cat=0
split_feature=2 3 7 9 4 1 0 4
split_gain=4368.67 6795.15 12363.8 16921.7 4467.83 9936.7 8839.95 6487.05
threshold=648.50000000000011 643.50000000000011 2019.5000000000002 26.500000000000004 588.50000000000011 82.000000000000014 90.000000000000014 105.50000000000001
decision_type=2 2 2 2 2 2 2 2
left_child=1 2 -1 4 5 7 -7 -4
right_child=-2 -3 3 -5 -6 6 -8 -9
leaf_value=-1.8000909501856026 -1.3391443637961693 1.8947424745559696 0.14512160354190404 2.9706022398812433 -1.2332900144435743 2.2385298771242943 -0.26178579032421112 -2.2310383069515232
leaf_weight=33 22 20 27 21 27 31 26 20
leaf_count=33 22 20 27 21 27 31 26 20
internal_value=6.95169e-09 0.143713 -0.0455874 0.335325 -0.0871246 0.210438 1.09804 -0.86601
internal_weight=227 205 185 152 131 104 57 47
internal_count=227 205 185 152 131 104 57 47
is_linear=0
shrinkage=0.1


Tree=99
num_leaves=10
num_cat=0
split_feature=5 9 4 1 1 3 0 3 6
split_gain=4329.03 15269.3 6138.39 16570.1 15002 12755.2 6369.54 5612.68 3798.42
threshold=453.00000000000006 23.500000000000004 285.50000000000006 156.00000000000003 193.00000000000003 300.00000000000006 156.50000000000003 52.500000000000007 280.50000000000006
decision_type=2 2 2 2 2 2 2 2 2
left_child=1 7 3 -2 -4 -6 -7 -1 -8
right_child=2 -3 4 -5 5 6 8 -9 -10
leaf_value=-0.87704968353112545 -2.6573813441124834 -2.9886290985345845 3.1924382725358011 1.0715519442008092 2.3641496312618258 -1.9566605620440982 0.97425327110290538 1.1903213845116312 -0.87468618661165243
leaf_weight=24 22 20 20 26 20 21 25 29 20
leaf_count=24 22 20 20 26 20 21 25 29 20
internal_value=4.72472e-09 -0.63428 0.300665 -0.637542 0.725514 0.151811 -0.518595 0.254153 0.152502
internal_weight=227 73 154 48 106 86 66 53 45
internal_count=227 73 154 48 106 86 66 53 45
is_linear=0
shrinkage=0.1


end of trees

feature_importances:
Column_8=104
Column_9=101
Column_3=90
Column_4=83
Column_6=77
Column_2=74
Column_1=73
Column_5=66
Column_7=65
Column_0=50

parameters:
[boosting: gbdt]
[objective: regression]
[metric: l2]
[tree_learner: serial]
[device_type: cpu]
[data_sample_strategy: bagging]
[data: ]
[valid: ]
[num_iterations: 100]
[learning_rate: 0.1]
[num_leaves: 31]
[num_threads: 0]
[seed: 0]
[deterministic: 0]
[force_col_wise: 0]
[force_row_wise: 0]
[histogram_pool_size: -1]
[max_depth: -1]
[min_data_in_leaf: 20]
[min_sum_hessian_in_leaf: 0.001]
[bagging_fraction: 1]
[pos_bagging_fraction: 1]
[neg_bagging_fraction: 1]
[bagging_freq: 0]
[bagging_seed: 3]
[bagging_by_query: 0]
[feature_fraction: 1]
[feature_fraction_bynode: 1]
[feature_fraction_seed: 2]
[extra_trees: 0]
[extra_seed: 6]
[early_stopping_round: 0]
[early_stopping_min_delta: 0]
[first_metric_only: 0]
[max_delta_step: 0]
[lambda_l1: 0]
[lambda_l2: 0]
[linear_lambda: 0]
[min_gain_to_split: 0]
[drop_rate: 0.1]
[max_drop: 50]
[skip_drop: 0.5]
[xgboost_dart_mode: 0]
[uniform_drop: 0]
[drop_seed: 4]
[top_rate: 0.2]
[other_rate: 0.1]
[min_data_per_group: 100]
[max_cat_threshold: 32]
[cat_l2: 10]
[cat_smooth: 10]
[max_cat_to_onehot: 4]
[top_k: 20]
[monotone_constraints: ]
[monotone_constraints_method: basic]
[monotone_penalty: 0]
[feature_contri: ]
[forcedsplits_filename: ]
[refit_decay_rate: 0.9]
[cegb_tradeoff: 1]
[cegb_penalty_split: 0]
[cegb_penalty_feature_lazy: ]
[cegb_penalty_feature_coupled: ]
[path_smooth: 0]
[interaction_constraints: ]
[verbosity: -1]
[saved_feature_importance_type: 0]
[use_quantized_grad: 0]
[num_grad_quant_bins: 4]
[quant_train_renew_leaf: 0]
[stochastic_rounding: 1]
[linear_tree: 0]
[max_bin: 255]
[max_bin_by_feature: ]
[min_data_in_bin: 3]
[bin_construct_sample_cnt: 200000]
[data_random_seed: 1]
[is_enable_sparse: 1]
[enable_bundle: 1]
[use_missing: 1]
[zero_as_missing: 0]
[feature_pre_filter: 1]
[pre_partition: 0]
[two_round: 0]
[header: 0]
[label_column: ]
[weight_column: ]
[group_column: ]
[ignore_column: ]
[categorical_feature: ]
[forcedbins_filename: ]
[precise_float_parser: 0]
[parser_config_file: ]
[objective_seed: 5]
[num_class: 1]
[is_unbalance: 0]
[scale_pos_weight: 1]
[sigmoid: 1]
[boost_from_average: 1]
[reg_sqrt: 0]
[alpha: 0.9]
[fair_c: 1]
[poisson_max_delta_step: 0.7]
[tweedie_variance_power: 1.5]
[lambdarank_truncation_level: 30]
[lambdarank_norm: 1]
[label_gain: ]
[lambdarank_position_bias_regularization: 0]
[eval_at: ]
[multi_error_top_k: 1]
[auc_mu_weights: ]
[num_machines: 1]
[local_listen_port: 12400]
[time_out: 120]
[machine_list_filename: ]
[machines: ]
[gpu_platform_id: -1]
[gpu_device_id: -1]
[gpu_use_dp: 0]
[num_gpu: 1]

end of parameters

pandas_categorical:null
